{"learner":{"attributes":{"scikit_learn":"{\"_estimator_type\": \"classifier\"}"},"feature_names":["V1_perm_entropy","V2_E_mid_qrs_norm","II_hjorth_mobility","V4_E_mid_qrs_norm","V4_E_upper","V1_skewness","V1_hjorth_mobility","V1_hjorth_complexity","II_kurtosis","V4_E_upper_norm","V3_E_mid_qrs_norm","V2_hjorth_mobility","V3_E_upper_norm","V2_zero_crossing_rate","V1_kurtosis","II_E_upper_norm","V1_zero_crossing_rate","II_E_low_pt","V1_E_high_qrs_norm","II_p2p","V1_E_mid_qrs_norm","V4_E_low_pt_norm","V3_kurtosis","V4_skewness","II_E_low_pt_norm"],"feature_types":["float","float","float","float","float","float","float","float","float","float","float","float","float","float","float","float","float","float","float","float","float","float","float","float","float"],"gradient_booster":{"model":{"cats":{"enc":[],"feature_segments":[],"sorted_idx":[]},"gbtree_model_param":{"num_parallel_tree":"1","num_trees":"509"},"iteration_indptr":[0,1,2,3,4,5,6,7,8,9,10,11,12,13,14,15,16,17,18,19,20,21,22,23,24,25,26,27,28,29,30,31,32,33,34,35,36,37,38,39,40,41,42,43,44,45,46,47,48,49,50,51,52,53,54,55,56,57,58,59,60,61,62,63,64,65,66,67,68,69,70,71,72,73,74,75,76,77,78,79,80,81,82,83,84,85,86,87,88,89,90,91,92,93,94,95,96,97,98,99,100,101,102,103,104,105,106,107,108,109,110,111,112,113,114,115,116,117,118,119,120,121,122,123,124,125,126,127,128,129,130,131,132,133,134,135,136,137,138,139,140,141,142,143,144,145,146,147,148,149,150,151,152,153,154,155,156,157,158,159,160,161,162,163,164,165,166,167,168,169,170,171,172,173,174,175,176,177,178,179,180,181,182,183,184,185,186,187,188,189,190,191,192,193,194,195,196,197,198,199,200,201,202,203,204,205,206,207,208,209,210,211,212,213,214,215,216,217,218,219,220,221,222,223,224,225,226,227,228,229,230,231,232,233,234,235,236,237,238,239,240,241,242,243,244,245,246,247,248,249,250,251,252,253,254,255,256,257,258,259,260,261,262,263,264,265,266,267,268,269,270,271,272,273,274,275,276,277,278,279,280,281,282,283,284,285,286,287,288,289,290,291,292,293,294,295,296,297,298,299,300,301,302,303,304,305,306,307,308,309,310,311,312,313,314,315,316,317,318,319,320,321,322,323,324,325,326,327,328,329,330,331,332,333,334,335,336,337,338,339,340,341,342,343,344,345,346,347,348,349,350,351,352,353,354,355,356,357,358,359,360,361,362,363,364,365,366,367,368,369,370,371,372,373,374,375,376,377,378,379,380,381,382,383,384,385,386,387,388,389,390,391,392,393,394,395,396,397,398,399,400,401,402,403,404,405,406,407,408,409,410,411,412,413,414,415,416,417,418,419,420,421,422,423,424,425,426,427,428,429,430,431,432,433,434,435,436,437,438,439,440,441,442,443,444,445,446,447,448,449,450,451,452,453,454,455,456,457,458,459,460,461,462,463,464,465,466,467,468,469,470,471,472,473,474,475,476,477,478,479,480,481,482,483,484,485,486,487,488,489,490,491,492,493,494,495,496,497,498,499,500,501,502,503,504,505,506,507,508,509],"tree_info":[0,0,0,0,0,0,0,0,0,0,0,0,0,0,0,0,0,0,0,0,0,0,0,0,0,0,0,0,0,0,0,0,0,0,0,0,0,0,0,0,0,0,0,0,0,0,0,0,0,0,0,0,0,0,0,0,0,0,0,0,0,0,0,0,0,0,0,0,0,0,0,0,0,0,0,0,0,0,0,0,0,0,0,0,0,0,0,0,0,0,0,0,0,0,0,0,0,0,0,0,0,0,0,0,0,0,0,0,0,0,0,0,0,0,0,0,0,0,0,0,0,0,0,0,0,0,0,0,0,0,0,0,0,0,0,0,0,0,0,0,0,0,0,0,0,0,0,0,0,0,0,0,0,0,0,0,0,0,0,0,0,0,0,0,0,0,0,0,0,0,0,0,0,0,0,0,0,0,0,0,0,0,0,0,0,0,0,0,0,0,0,0,0,0,0,0,0,0,0,0,0,0,0,0,0,0,0,0,0,0,0,0,0,0,0,0,0,0,0,0,0,0,0,0,0,0,0,0,0,0,0,0,0,0,0,0,0,0,0,0,0,0,0,0,0,0,0,0,0,0,0,0,0,0,0,0,0,0,0,0,0,0,0,0,0,0,0,0,0,0,0,0,0,0,0,0,0,0,0,0,0,0,0,0,0,0,0,0,0,0,0,0,0,0,0,0,0,0,0,0,0,0,0,0,0,0,0,0,0,0,0,0,0,0,0,0,0,0,0,0,0,0,0,0,0,0,0,0,0,0,0,0,0,0,0,0,0,0,0,0,0,0,0,0,0,0,0,0,0,0,0,0,0,0,0,0,0,0,0,0,0,0,0,0,0,0,0,0,0,0,0,0,0,0,0,0,0,0,0,0,0,0,0,0,0,0,0,0,0,0,0,0,0,0,0,0,0,0,0,0,0,0,0,0,0,0,0,0,0,0,0,0,0,0,0,0,0,0,0,0,0,0,0,0,0,0,0,0,0,0,0,0,0,0,0,0,0,0,0,0,0,0,0,0,0,0,0,0,0,0,0,0,0,0,0,0,0,0,0,0,0,0,0,0,0,0,0,0,0,0,0,0,0,0,0,0,0,0,0,0,0,0,0,0,0,0,0,0,0,0,0,0,0,0,0,0,0,0,0,0,0,0,0,0,0,0,0,0,0],"trees":[{"base_weights":[-8.001662E-2,-1.602263E0,5.8801633E-1,1.0661376E-2,-3.8701914E-2,-5.988174E-1,1.7772498E-2,1.5195087E-2,-3.185768E-2],"categories":[],"categories_nodes":[],"categories_segments":[],"categories_sizes":[],"default_left":[0,0,0,0,0,0,0,0,0],"id":0,"left_children":[1,3,5,-1,-1,7,-1,-1,-1],"loss_changes":[7.4695755E1,4.502753E1,3.3257526E1,0E0,0E0,3.6411015E1,0E0,0E0,0E0],"parents":[2147483647,0,0,1,1,2,2,5,5],"right_children":[2,4,6,-1,-1,8,-1,-1,-1],"split_conditions":[4.4067764E-1,1.5711566E-3,-2.5803359E0,1.0661376E-2,-3.8701914E-2,5.046022E-3,1.7772498E-2,1.5195087E-2,-3.185768E-2],"split_indices":[10,15,5,0,0,9,0,0,0],"split_type":[0,0,0,0,0,0,0,0,0],"sum_hessian":[7.332592E1,2.2422777E1,5.090314E1,6.1667013E0,1.6256077E1,1.6032778E1,3.487036E1,7.6243525E0,8.408426E0],"tree_param":{"num_deleted":"0","num_feature":"25","num_nodes":"9","size_leaf_vector":"1"}},{"base_weights":[-1.02664545E-1,5.940671E-1,-8.660799E-1,-1.552638E-2,1.6323268E-2,-3.524212E-2,-5.461909E-2,1.1479329E-2,-2.7575035E-2],"categories":[],"categories_nodes":[],"categories_segments":[],"categories_sizes":[],"default_left":[0,0,0,0,0,0,0,0,0],"id":1,"left_children":[1,3,5,-1,-1,-1,7,-1,-1],"loss_changes":[3.6742317E1,2.575532E1,3.6927185E1,0E0,0E0,0E0,2.8342701E1,0E0,0E0],"parents":[2147483647,0,0,1,1,2,2,6,6],"right_children":[2,4,6,-1,-1,-1,8,-1,-1],"split_conditions":[5.9127305E-3,1.5439234E0,1.4942434E0,-1.552638E-2,1.6323268E-2,-3.524212E-2,6.93868E0,1.1479329E-2,-2.7575035E-2],"split_indices":[15,7,7,0,0,0,8,0,0],"split_type":[0,0,0,0,0,0,0,0,0],"sum_hessian":[6.901259E1,3.5994495E1,3.3018093E1,7.893842E0,2.8100653E1,1.21163E1,2.0901793E1,1.425009E1,6.651704E0],"tree_param":{"num_deleted":"0","num_feature":"25","num_nodes":"9","size_leaf_vector":"1"}},{"base_weights":[1.6431679E-1,8.1406474E-1,-1.2573509E0,1.9092433E-2,1.3954422E-1,-1.8830718E0,7.936929E-4,-1.0348061E-2,1.5473593E-2,-4.4128854E-2,-5.7662693E-3],"categories":[],"categories_nodes":[],"categories_segments":[],"categories_sizes":[],"default_left":[0,0,0,0,0,0,0,0,0,0,0],"id":2,"left_children":[1,3,5,-1,7,9,-1,-1,-1,-1,-1],"loss_changes":[6.948121E1,1.4053886E1,1.9512238E1,0E0,1.3416262E1,2.2383266E1,0E0,0E0,0E0,0E0,0E0],"parents":[2147483647,0,0,1,1,2,2,4,4,5,5],"right_children":[2,4,6,-1,8,10,-1,-1,-1,-1,-1],"split_conditions":[6.3690627E-1,1.1396162E-1,4.788566E-1,1.9092433E-2,7.25E-2,2.4060257E-2,7.936929E-4,-1.0348061E-2,1.5473593E-2,-4.4128854E-2,-5.7662693E-3],"split_indices":[2,18,3,0,13,9,0,0,0,0,0],"split_type":[0,0,0,0,0,0,0,0,0,0,0],"sum_hessian":[7.527987E1,5.1728382E1,2.355149E1,3.212035E1,1.960803E1,1.5997374E1,7.5541162E0,1.0016821E1,9.59121E0,9.813543E0,6.1838303E0],"tree_param":{"num_deleted":"0","num_feature":"25","num_nodes":"11","size_leaf_vector":"1"}},{"base_weights":[-1.9661227E-1,-7.853966E-1,1.22634955E-2,5.825804E-3,-1.4056311E0,-4.3755643E-2,-6.9990003E-1,7.711181E-3,-3.0388597E-2],"categories":[],"categories_nodes":[],"categories_segments":[],"categories_sizes":[],"default_left":[0,0,0,0,0,0,0,0,0],"id":3,"left_children":[1,3,-1,-1,5,-1,7,-1,-1],"loss_changes":[3.6843166E1,2.8818727E1,0E0,0E0,2.5217804E1,0E0,2.6000214E1,0E0,0E0],"parents":[2147483647,0,0,1,1,4,4,6,6],"right_children":[2,4,-1,-1,6,-1,8,-1,-1],"split_conditions":[1.6751443E0,2.0482886E-1,1.22634955E-2,5.825804E-3,2.596388E0,-4.3755643E-2,4.3294816E-3,7.711181E-3,-3.0388597E-2],"split_indices":[7,21,0,0,23,0,15,0,0],"split_type":[0,0,0,0,0,0,0,0,0],"sum_hessian":[6.375887E1,3.993269E1,2.3826181E1,1.3854462E1,2.6078226E1,8.701723E0,1.7376503E1,8.819149E0,8.557354E0],"tree_param":{"num_deleted":"0","num_feature":"25","num_nodes":"9","size_leaf_vector":"1"}},{"base_weights":[7.114059E-2,5.121545E-1,-1.7759676E0,-2.4090855E-1,1.7387493E-2,-4.2566072E-2,-1.4629126E-2,5.462736E-1,-2.2979889E-2,-7.018945E-3,1.7398734E-2],"categories":[],"categories_nodes":[],"categories_segments":[],"categories_sizes":[],"default_left":[0,0,0,0,0,0,0,0,0,0,0],"id":4,"left_children":[1,3,5,7,-1,-1,-1,9,-1,-1,-1],"loss_changes":[6.3240482E1,2.8553709E1,1.1430679E1,2.7035694E1,0E0,0E0,0E0,9.621525E0,0E0,0E0,0E0],"parents":[2147483647,0,0,1,1,2,2,3,3,7,7],"right_children":[2,4,6,8,-1,-1,-1,10,-1,-1,-1],"split_conditions":[6.6468996E-1,4.7782153E-1,4.5425698E-1,1.0243219E-1,1.7387493E-2,-4.2566072E-2,-1.4629126E-2,-2.616899E0,-2.2979889E-2,-7.018945E-3,1.7398734E-2],"split_indices":[6,1,1,18,0,0,0,5,0,0,0],"split_type":[0,0,0,0,0,0,0,0,0,0,0],"sum_hessian":[7.783236E1,6.2886856E1,1.4945504E1,2.7806852E1,3.5080006E1,6.94831E0,7.9971943E0,1.6890558E1,1.0916294E1,6.04872E0,1.0841839E1],"tree_param":{"num_deleted":"0","num_feature":"25","num_nodes":"11","size_leaf_vector":"1"}},{"base_weights":[-2.0054863E-1,1.781313E-2,-9.6848744E-1,-3.530878E-1,-1.8565614E0,6.8824636E-3,-1.6333127E-2,-6.0883835E-3,-4.2289764E-2],"categories":[],"categories_nodes":[],"categories_segments":[],"categories_sizes":[],"default_left":[0,0,0,0,0,0,0,0,0],"id":5,"left_children":[1,-1,3,5,7,-1,-1,-1,-1],"loss_changes":[6.588907E1,0E0,2.199736E1,1.3350799E1,2.0299862E1,0E0,0E0,0E0,0E0],"parents":[2147483647,0,0,2,2,3,3,4,4],"right_children":[2,-1,4,6,8,-1,-1,-1,-1],"split_conditions":[5.165345E-1,1.781313E-2,2.4157207E-1,6.3426334E-1,5.139021E-1,6.8824636E-3,-1.6333127E-2,-6.0883835E-3,-4.2289764E-2],"split_indices":[6,0,21,2,11,0,0,0,0],"split_type":[0,0,0,0,0,0,0,0,0],"sum_hessian":[6.402617E1,2.3258753E1,4.0767418E1,2.4165705E1,1.6601713E1,1.1172285E1,1.299342E1,6.1450486E0,1.0456664E1],"tree_param":{"num_deleted":"0","num_feature":"25","num_nodes":"9","size_leaf_vector":"1"}},{"base_weights":[-7.771834E-2,6.077528E-1,-4.149677E-2,1.5479268E-2,-1.9216837E-2],"categories":[],"categories_nodes":[],"categories_segments":[],"categories_sizes":[],"default_left":[0,0,0,0,0],"id":6,"left_children":[1,3,-1,-1,-1],"loss_changes":[1.221416E2,3.827327E1,0E0,0E0,0E0],"parents":[2147483647,0,0,1,1],"right_children":[2,4,-1,-1,-1],"split_conditions":[6.6361636E-1,2.3165281E-1,-4.149677E-2,1.5479268E-2,-1.9216837E-2],"split_indices":[2,4,0,0,0],"split_type":[0,0,0,0,0],"sum_hessian":[6.8971886E1,5.4445194E1,1.45266905E1,4.5114986E1,9.330208E0],"tree_param":{"num_deleted":"0","num_feature":"25","num_nodes":"5","size_leaf_vector":"1"}},{"base_weights":[9.722129E-2,5.909829E-1,-3.2400213E-2,1.9748079E-2,-2.3842785E-1,2.5523946E-1,-2.5899157E-2,-1.5921658E-2,1.6135585E-2],"categories":[],"categories_nodes":[],"categories_segments":[],"categories_sizes":[],"default_left":[0,0,0,0,0,0,0,0,0],"id":7,"left_children":[1,3,-1,-1,5,7,-1,-1,-1],"loss_changes":[8.278766E1,3.5354584E1,0E0,0E0,1.992354E1,2.0647131E1,0E0,0E0,0E0],"parents":[2147483647,0,0,1,1,4,4,5,5],"right_children":[2,4,-1,-1,6,8,-1,-1,-1],"split_conditions":[6.771995E-1,8.083583E-1,-3.2400213E-2,1.9748079E-2,6.2720466E-1,7.152825E0,-2.5899157E-2,-1.5921658E-2,1.6135585E-2],"split_indices":[2,0,0,0,2,22,0,0,0],"split_type":[0,0,0,0,0,0,0,0,0],"sum_hessian":[7.741771E1,6.311925E1,1.4298458E1,3.4934586E1,2.8184666E1,2.0843235E1,7.3414297E0,7.835586E0,1.3007649E1],"tree_param":{"num_deleted":"0","num_feature":"25","num_nodes":"9","size_leaf_vector":"1"}},{"base_weights":[-2.6567438E-1,4.176116E-1,-4.0478464E-2,-4.4752233E-2,1.6650554E-2,1.180972E-2,-4.088213E-2],"categories":[],"categories_nodes":[],"categories_segments":[],"categories_sizes":[],"default_left":[0,0,0,0,0,0,0],"id":8,"left_children":[1,3,-1,5,-1,-1,-1],"loss_changes":[9.090568E1,1.3327874E1,0E0,5.2920856E1,0E0,0E0,0E0],"parents":[2147483647,0,0,1,1,3,3],"right_children":[2,4,-1,6,-1,-1,-1],"split_conditions":[1.107917E-2,4.7782153E-1,-4.0478464E-2,5.650951E-1,1.6650554E-2,1.180972E-2,-4.088213E-2],"split_indices":[9,1,0,6,0,0,0],"split_type":[0,0,0,0,0,0,0],"sum_hessian":[5.7052277E1,4.405029E1,1.300199E1,2.5591478E1,1.8458809E1,1.9478113E1,6.113365E0],"tree_param":{"num_deleted":"0","num_feature":"25","num_nodes":"7","size_leaf_vector":"1"}},{"base_weights":[-1.3911894E-1,-7.72442E-1,1.6680162E-2,1.548723E-2,-1.1325008E0,6.5434305E-3,-1.5912981E0,-2.1789249E-3,-3.4949694E-2],"categories":[],"categories_nodes":[],"categories_segments":[],"categories_sizes":[],"default_left":[0,0,0,0,0,0,0,0,0],"id":9,"left_children":[1,3,-1,-1,5,-1,7,-1,-1],"loss_changes":[5.2759552E1,2.883331E1,0E0,0E0,2.7013996E1,0E0,2.7049011E1,0E0,0E0],"parents":[2147483647,0,0,1,1,4,4,6,6],"right_children":[2,4,-1,-1,6,-1,8,-1,-1],"split_conditions":[4.9676546E-1,2.355766E0,1.6680162E-2,1.548723E-2,4.4411469E-1,6.5434305E-3,8.101132E-1,-2.1789249E-3,-3.4949694E-2],"split_indices":[3,8,0,0,11,0,0,0,0],"split_type":[0,0,0,0,0,0,0,0,0],"sum_hessian":[6.909206E1,4.5379166E1,2.3712893E1,7.633716E0,3.774545E1,8.551763E0,2.9193686E1,9.0445E0,2.0149185E1],"tree_param":{"num_deleted":"0","num_feature":"25","num_nodes":"9","size_leaf_vector":"1"}},{"base_weights":[1.1334408E-1,1.5938478E-2,-6.215195E-1,-9.669518E-1,1.6996983E-2,-1.5896958E0,4.7614905E-3,-3.2939594E-2,7.297698E-5],"categories":[],"categories_nodes":[],"categories_segments":[],"categories_sizes":[],"default_left":[0,0,0,0,0,0,0,0,0],"id":10,"left_children":[1,-1,3,5,-1,7,-1,-1,-1],"loss_changes":[5.349423E1,0E0,2.609687E1,2.934911E1,0E0,2.0768387E1,0E0,0E0,0E0],"parents":[2147483647,0,0,2,2,3,3,5,5],"right_children":[2,-1,4,6,-1,8,-1,-1,-1],"split_conditions":[5.642175E-1,1.5938478E-2,5.025941E-1,4.7885424E-1,1.6996983E-2,3.0537012E-1,4.7614905E-3,-3.2939594E-2,7.297698E-5],"split_indices":[6,0,3,1,0,18,0,0,0],"split_type":[0,0,0,0,0,0,0,0,0],"sum_hessian":[8.021252E1,3.5986893E1,4.4225624E1,3.6852783E1,7.3728433E0,2.4805868E1,1.2046913E1,1.878072E1,6.0251493E0],"tree_param":{"num_deleted":"0","num_feature":"25","num_nodes":"9","size_leaf_vector":"1"}},{"base_weights":[4.2253613E-2,4.224708E-1,-2.7937375E-2,1.10177705E-2,-1.1968163E-2],"categories":[],"categories_nodes":[],"categories_segments":[],"categories_sizes":[],"default_left":[0,0,0,0,0],"id":11,"left_children":[1,3,-1,-1,-1],"loss_changes":[4.8540066E1,1.9480326E1,0E0,0E0,0E0],"parents":[2147483647,0,0,1,1],"right_children":[2,4,-1,-1,-1],"split_conditions":[7.0263565E-1,8.607643E-1,-2.7937375E-2,1.10177705E-2,-1.1968163E-2],"split_indices":[6,0,0,0,0],"split_type":[0,0,0,0,0],"sum_hessian":[7.000762E1,5.8023098E1,1.1984526E1,4.6962177E1,1.1060922E1],"tree_param":{"num_deleted":"0","num_feature":"25","num_nodes":"5","size_leaf_vector":"1"}},{"base_weights":[-3.74474E-2,7.780354E-1,-1.1380633E0,1.6497908E-2,-7.0118667E-3,-3.235051E-2,1.0532015E-2],"categories":[],"categories_nodes":[],"categories_segments":[],"categories_sizes":[],"default_left":[0,0,0,0,0,0,0],"id":12,"left_children":[1,3,5,-1,-1,-1,-1],"loss_changes":[5.50283E1,1.2045391E1,4.433445E1,0E0,0E0,0E0,0E0],"parents":[2147483647,0,0,1,1,2,2],"right_children":[2,4,6,-1,-1,-1,-1],"split_conditions":[1.4396143E-1,8.995072E-3,8.416667E-2,1.6497908E-2,-7.0118667E-3,-3.235051E-2,1.0532015E-2],"split_indices":[18,9,13,0,0,0,0],"split_type":[0,0,0,0,0,0,0],"sum_hessian":[6.1259243E1,3.512078E1,2.6138462E1,2.8721846E1,6.398934E0,1.7305855E1,8.832606E0],"tree_param":{"num_deleted":"0","num_feature":"25","num_nodes":"7","size_leaf_vector":"1"}},{"base_weights":[1.3511376E-1,1.5907569E-2,-8.3682746E-1,8.973348E-3,-1.5441346E0,-1.4123075E-2,-3.771408E-2],"categories":[],"categories_nodes":[],"categories_segments":[],"categories_sizes":[],"default_left":[0,0,0,0,0,0,0],"id":13,"left_children":[1,-1,3,-1,5,-1,-1],"loss_changes":[6.067811E1,0E0,3.3635136E1,0E0,1.2059689E1,0E0,0E0],"parents":[2147483647,0,0,2,2,4,4],"right_children":[2,-1,4,-1,6,-1,-1],"split_conditions":[5.5713063E-1,1.5907569E-2,8.20071E0,8.973348E-3,8.3333336E-2,-1.4123075E-2,-3.771408E-2],"split_indices":[6,0,14,0,16,0,0],"split_type":[0,0,0,0,0,0,0],"sum_hessian":[7.068206E1,3.7106373E1,3.3575687E1,1.1150096E1,2.2425592E1,1.2999214E1,9.426379E0],"tree_param":{"num_deleted":"0","num_feature":"25","num_nodes":"7","size_leaf_vector":"1"}},{"base_weights":[-4.74236E-2,-1.4544995E0,7.175311E-1,8.519521E-3,-3.784241E-2,1.5457856E-2,-7.3705036E-3],"categories":[],"categories_nodes":[],"categories_segments":[],"categories_sizes":[],"default_left":[0,0,0,0,0,0,0],"id":14,"left_children":[1,3,5,-1,-1,-1,-1],"loss_changes":[6.4206604E1,4.0930756E1,1.2515621E1,0E0,0E0,0E0,0E0],"parents":[2147483647,0,0,1,1,2,2],"right_children":[2,4,6,-1,-1,-1,-1],"split_conditions":[-3.1181943E0,8.1084263E-1,8.607643E-1,8.519521E-3,-3.784241E-2,1.5457856E-2,-7.3705036E-3],"split_indices":[5,0,0,0,0,0,0],"split_type":[0,0,0,0,0,0,0],"sum_hessian":[5.9564545E1,2.1036625E1,3.8527916E1,6.815034E0,1.4221592E1,3.1449863E1,7.078055E0],"tree_param":{"num_deleted":"0","num_feature":"25","num_nodes":"7","size_leaf_vector":"1"}},{"base_weights":[-2.523994E-1,-3.9770897E-2,2.8664634E-2,1.4316637E-2,-9.7362024E-1,-3.7592236E-2,1.9761511E-4],"categories":[],"categories_nodes":[],"categories_segments":[],"categories_sizes":[],"default_left":[0,0,0,0,0,0,0],"id":15,"left_children":[1,-1,3,-1,5,-1,-1],"loss_changes":[3.767141E1,0E0,4.587616E1,0E0,3.4426167E1,0E0,0E0],"parents":[2147483647,0,0,2,2,4,4],"right_children":[2,-1,4,-1,6,-1,-1],"split_conditions":[5.5E-2,-3.9770897E-2,5.969161E-1,1.4316637E-2,8.099421E-3,-3.7592236E-2,1.9761511E-4],"split_indices":[13,0,6,0,12,0,0],"split_type":[0,0,0,0,0,0,0],"sum_hessian":[5.795791E1,6.3787265E0,5.157918E1,2.7423113E1,2.415607E1,9.904179E0,1.4251891E1],"tree_param":{"num_deleted":"0","num_feature":"25","num_nodes":"7","size_leaf_vector":"1"}},{"base_weights":[-6.486531E-2,-1.1241443E0,1.472739E-2,1.2821524E-2,-1.8110441E0,-3.8579766E-2,-1.8300159E-2],"categories":[],"categories_nodes":[],"categories_segments":[],"categories_sizes":[],"default_left":[0,0,0,0,0,0,0],"id":16,"left_children":[1,3,-1,-1,5,-1,-1],"loss_changes":[6.945374E1,4.2575287E1,0E0,0E0,9.440872E0,0E0,0E0],"parents":[2147483647,0,0,1,1,4,4],"right_children":[2,4,-1,-1,6,-1,-1],"split_conditions":[4.7728497E-1,7.8904545E-1,1.472739E-2,1.2821524E-2,6.853109E-1,-3.8579766E-2,-1.8300159E-2],"split_indices":[10,19,0,0,6,0,0],"split_type":[0,0,0,0,0,0,0],"sum_hessian":[6.506598E1,3.177767E1,3.3288307E1,8.24604E0,2.353163E1,1.1503877E1,1.2027752E1],"tree_param":{"num_deleted":"0","num_feature":"25","num_nodes":"7","size_leaf_vector":"1"}},{"base_weights":[1.7669863E-1,7.4081254E-1,-7.9014224E-1,1.6560126E-2,-1.1953145E-2,6.556136E-3,-1.5218097E0,-3.5189398E-2,-3.3184753E-3],"categories":[],"categories_nodes":[],"categories_segments":[],"categories_sizes":[],"default_left":[0,0,0,0,0,0,0,0,0],"id":17,"left_children":[1,3,5,-1,-1,-1,7,-1,-1],"loss_changes":[3.9289967E1,2.1932093E1,2.3565006E1,0E0,0E0,0E0,1.5514618E1,0E0,0E0],"parents":[2147483647,0,0,1,1,2,2,6,6],"right_children":[2,4,6,-1,-1,-1,8,-1,-1],"split_conditions":[5.777208E-1,8.573436E-1,8.1084263E-1,1.6560126E-2,-1.1953145E-2,6.556136E-3,4.743755E-1,-3.5189398E-2,-3.3184753E-3],"split_indices":[11,0,0,0,0,0,1,0,0],"split_type":[0,0,0,0,0,0,0,0,0],"sum_hessian":[7.2049286E1,4.5584763E1,2.6464525E1,3.7686497E1,7.8982663E0,9.908024E0,1.6556501E1,1.0566545E1,5.9899564E0],"tree_param":{"num_deleted":"0","num_feature":"25","num_nodes":"9","size_leaf_vector":"1"}},{"base_weights":[7.306637E-2,-5.720819E-1,5.957831E-1,-9.883948E-1,1.7804489E-2,1.7393049E-2,-3.0100903E-1,3.5913373E-4,-2.8245002E-2,1.0061306E-2,-2.2502048E-2],"categories":[],"categories_nodes":[],"categories_segments":[],"categories_sizes":[],"default_left":[0,0,0,0,0,0,0,0,0,0,0],"id":18,"left_children":[1,3,5,7,-1,-1,9,-1,-1,-1,-1],"loss_changes":[2.3618776E1,2.2235538E1,1.8101412E1,2.1092693E1,0E0,0E0,1.5278778E1,0E0,0E0,0E0,0E0],"parents":[2147483647,0,0,1,1,2,2,3,3,6,6],"right_children":[2,4,6,8,-1,-1,10,-1,-1,-1,-1],"split_conditions":[1.5785892E0,3.226312E-2,7.4480143E0,2.1069185E-1,1.7804489E-2,1.7393049E-2,3.973069E-3,3.5913373E-4,-2.8245002E-2,1.0061306E-2,-2.2502048E-2],"split_indices":[7,12,14,21,0,0,15,0,0,0,0],"split_type":[0,0,0,0,0,0,0,0,0,0,0],"sum_hessian":[7.0028625E1,3.1234018E1,3.8794605E1,2.518316E1,6.0508585E0,2.4693266E1,1.410134E1,1.1199596E1,1.3983563E1,7.6460924E0,6.4552474E0],"tree_param":{"num_deleted":"0","num_feature":"25","num_nodes":"11","size_leaf_vector":"1"}},{"base_weights":[1.09362096E-1,6.344266E-1,-1.0874084E0,7.902158E-2,2.0215405E-2,1.3327507E-2,-2.9118152E-2,1.38028925E-2,-7.262617E-1,1.3514062E-2,-3.6327142E-2],"categories":[],"categories_nodes":[],"categories_segments":[],"categories_sizes":[],"default_left":[0,0,0,0,0,0,0,0,0,0,0],"id":19,"left_children":[1,3,5,7,-1,-1,-1,-1,9,-1,-1],"loss_changes":[4.3546223E1,1.751212E1,3.1880306E1,1.7069763E1,0E0,0E0,0E0,0E0,3.3440605E1,0E0,0E0],"parents":[2147483647,0,0,1,1,2,2,3,3,8,8],"right_children":[2,4,6,8,-1,-1,-1,-1,10,-1,-1],"split_conditions":[1.1769834E1,4.9446103E-1,1.1798785E-1,5.2403808E-3,2.0215405E-2,1.3327507E-2,-2.9118152E-2,1.38028925E-2,1.0639175E0,1.3514062E-2,-3.6327142E-2],"split_indices":[8,3,18,15,0,0,0,0,17,0,0],"split_type":[0,0,0,0,0,0,0,0,0,0,0],"sum_hessian":[6.939128E1,4.8305122E1,2.1086155E1,2.632344E1,2.1981684E1,5.9770226E0,1.5109133E1,1.32492E1,1.3074242E1,6.512209E0,6.5620327E0],"tree_param":{"num_deleted":"0","num_feature":"25","num_nodes":"11","size_leaf_vector":"1"}},{"base_weights":[1.327668E-1,-3.8636196E-1,1.5828282E-2,1.1111887E-2,-8.385807E-1,-1.3074275E0,1.8307412E-2,-6.558886E-4,-3.5050962E-2],"categories":[],"categories_nodes":[],"categories_segments":[],"categories_sizes":[],"default_left":[0,0,0,0,0,0,0,0,0],"id":20,"left_children":[1,3,-1,-1,5,7,-1,-1,-1],"loss_changes":[3.3619873E1,2.2885628E1,0E0,0E0,3.0850836E1,3.1180386E1,0E0,0E0,0E0],"parents":[2147483647,0,0,1,1,4,4,5,5],"right_children":[2,4,-1,-1,6,8,-1,-1,-1],"split_conditions":[4.9676546E-1,5.186634E-1,1.5828282E-2,1.1111887E-2,3.1764995E-2,4.9637244E-3,1.8307412E-2,-6.558886E-4,-3.5050962E-2],"split_indices":[3,2,0,0,12,15,0,0,0],"split_type":[0,0,0,0,0,0,0,0,0],"sum_hessian":[7.3402405E1,4.6079475E1,2.732293E1,1.3363873E1,3.2715603E1,2.6579908E1,6.135694E0,1.1357169E1,1.5222739E1],"tree_param":{"num_deleted":"0","num_feature":"25","num_nodes":"9","size_leaf_vector":"1"}},{"base_weights":[1.9335692E-1,1.567319E-2,-3.827138E-1,-2.602602E-2,1.5671428E-1,-2.0579746E-2,1.2517982E-2],"categories":[],"categories_nodes":[],"categories_segments":[],"categories_sizes":[],"default_left":[0,0,0,0,0,0,0],"id":21,"left_children":[1,-1,3,-1,5,-1,-1],"loss_changes":[3.115792E1,0E0,2.7070219E1,0E0,2.5833069E1,0E0,0E0],"parents":[2147483647,0,0,2,2,4,4],"right_children":[2,-1,4,-1,6,-1,-1],"split_conditions":[5.5713063E-1,1.567319E-2,1.9992212E0,-2.602602E-2,4.3699393E-1,-2.0579746E-2,1.2517982E-2],"split_indices":[6,0,17,0,10,0,0],"split_type":[0,0,0,0,0,0,0],"sum_hessian":[6.663114E1,2.779186E1,3.8839283E1,1.1567376E1,2.7271906E1,8.236375E0,1.9035532E1],"tree_param":{"num_deleted":"0","num_feature":"25","num_nodes":"7","size_leaf_vector":"1"}},{"base_weights":[1.696881E-1,6.96903E-1,-4.9404734E-1,1.6827047E-2,8.631353E-2,4.2205974E-1,-2.6954856E-2,1.6128104E-2,-2.4378339E-2,1.9047631E-2,-5.030767E-3],"categories":[],"categories_nodes":[],"categories_segments":[],"categories_sizes":[],"default_left":[0,0,0,0,0,0,0,0,0,0,0],"id":22,"left_children":[1,3,5,-1,7,9,-1,-1,-1,-1,-1],"loss_changes":[2.7938982E1,1.0189814E1,3.9866283E1,0E0,2.6752823E1,1.2046458E1,0E0,0E0,0E0,0E0,0E0],"parents":[2147483647,0,0,1,1,2,2,4,4,5,5],"right_children":[2,4,6,-1,8,10,-1,-1,-1,-1,-1],"split_conditions":[5.9127305E-3,4.6042926E-3,1.1999965E0,1.6827047E-2,2.1883859E-1,1.9265498E-1,-2.6954856E-2,1.6128104E-2,-2.4378339E-2,1.9047631E-2,-5.030767E-3],"split_indices":[15,12,19,0,21,21,0,0,0,0,0],"split_type":[0,0,0,0,0,0,0,0,0,0,0],"sum_hessian":[7.976715E1,4.4562984E1,3.5204166E1,2.7339924E1,1.722306E1,2.0123697E1,1.5080466E1,1.0988356E1,6.2347045E0,9.799458E0,1.0324241E1],"tree_param":{"num_deleted":"0","num_feature":"25","num_nodes":"11","size_leaf_vector":"1"}},{"base_weights":[3.4252353E-2,4.9391007E-1,-1.4488528E0,7.8077894E-1,-1.9220734E-2,-5.5821654E-3,-3.3175573E-2,-8.169239E-3,1.58418E-2],"categories":[],"categories_nodes":[],"categories_segments":[],"categories_sizes":[],"default_left":[0,0,0,0,0,0,0,0,0],"id":23,"left_children":[1,3,5,7,-1,-1,-1,-1,-1],"loss_changes":[4.5348526E1,2.5157045E1,1.1249451E1,1.3360832E1,0E0,0E0,0E0,0E0,0E0],"parents":[2147483647,0,0,1,1,2,2,3,3],"right_children":[2,4,6,8,-1,-1,-1,-1,-1],"split_conditions":[1.1409369E1,6.6468996E-1,1.4090274E-1,4.374527E-1,-1.9220734E-2,-5.5821654E-3,-3.3175573E-2,-8.169239E-3,1.58418E-2],"split_indices":[8,6,18,3,0,0,0,0,0],"split_type":[0,0,0,0,0,0,0,0,0],"sum_hessian":[6.67E1,5.0984673E1,1.5715328E1,4.3774776E1,7.2098956E0,6.0730357E0,9.642292E0,6.5553827E0,3.7219395E1],"tree_param":{"num_deleted":"0","num_feature":"25","num_nodes":"9","size_leaf_vector":"1"}},{"base_weights":[2.870185E-1,6.445993E-1,-1.263014E0,1.4439139E-2,-4.4113508E-1,-9.196854E-4,-3.2452017E-2,-2.200302E-2,1.0796944E-2],"categories":[],"categories_nodes":[],"categories_segments":[],"categories_sizes":[],"default_left":[0,0,0,0,0,0,0,0,0],"id":24,"left_children":[1,3,5,-1,7,-1,-1,-1,-1],"loss_changes":[4.4792988E1,2.0041323E1,1.4531935E1,0E0,1.4745166E1,0E0,0E0,0E0,0E0],"parents":[2147483647,0,0,1,1,2,2,4,4],"right_children":[2,4,6,-1,8,-1,-1,-1,-1],"split_conditions":[6.6468996E-1,8.594165E-1,2.0215414E0,1.4439139E-2,5.046515E-1,-9.196854E-4,-3.2452017E-2,-2.200302E-2,1.0796944E-2],"split_indices":[6,0,23,0,20,0,0,0,0],"split_type":[0,0,0,0,0,0,0,0,0],"sum_hessian":[8.0958405E1,6.5849915E1,1.510849E1,5.246432E1,1.33855915E1,6.156345E0,8.952146E0,7.280271E0,6.10532E0],"tree_param":{"num_deleted":"0","num_feature":"25","num_nodes":"9","size_leaf_vector":"1"}},{"base_weights":[1.545926E-1,-2.312407E-2,4.879889E-1,-1.9866375E-2,7.4307406E-1,-8.095199E-3,1.4641418E-2],"categories":[],"categories_nodes":[],"categories_segments":[],"categories_sizes":[],"default_left":[0,0,0,0,0,0,0],"id":25,"left_children":[1,-1,3,-1,5,-1,-1],"loss_changes":[3.707275E1,0E0,2.5408127E1,0E0,1.2193953E1,0E0,0E0],"parents":[2147483647,0,0,2,2,4,4],"right_children":[2,-1,4,-1,6,-1,-1],"split_conditions":[-3.6740541E0,-2.312407E-2,1.4240288E0,-1.9866375E-2,7.666667E-2,-8.095199E-3,1.4641418E-2],"split_indices":[5,0,7,0,16,0,0],"split_type":[0,0,0,0,0,0,0],"sum_hessian":[6.826662E1,1.1500831E1,5.6765785E1,7.124582E0,4.9641205E1,6.527906E0,4.31133E1],"tree_param":{"num_deleted":"0","num_feature":"25","num_nodes":"7","size_leaf_vector":"1"}},{"base_weights":[2.3279564E-1,-3.256899E-1,2.0433296E-2,-9.438093E-1,1.4348369E-2,-2.6691338E-2,-2.4308582E-1,6.746493E-3,-2.361022E-2],"categories":[],"categories_nodes":[],"categories_segments":[],"categories_sizes":[],"default_left":[0,0,0,0,0,0,0,0,0],"id":26,"left_children":[1,3,-1,5,-1,-1,7,-1,-1],"loss_changes":[4.707176E1,3.951413E1,0E0,1.8172869E1,0E0,0E0,1.5567099E1,0E0,0E0],"parents":[2147483647,0,0,1,1,3,3,6,6],"right_children":[2,4,-1,6,-1,-1,8,-1,-1],"split_conditions":[5.1407236E-1,4.9450007E-1,2.0433296E-2,3.0326623E-1,1.4348369E-2,-2.6691338E-2,3.9048868E-1,6.746493E-3,-2.361022E-2],"split_indices":[3,1,0,24,0,0,24,0,0],"split_type":[0,0,0,0,0,0,0,0,0],"sum_hessian":[7.820526E1,5.1386333E1,2.6818924E1,3.439707E1,1.6989264E1,1.6364403E1,1.8032667E1,1.1702812E1,6.3298564E0],"tree_param":{"num_deleted":"0","num_feature":"25","num_nodes":"9","size_leaf_vector":"1"}},{"base_weights":[3.2205212E-1,8.188039E-1,-7.125291E-1,1.7440427E-2,2.8682196E-1,5.2734395E-3,-2.6445039E-2,1.5005414E-2,-1.2494452E-2],"categories":[],"categories_nodes":[],"categories_segments":[],"categories_sizes":[],"default_left":[0,0,0,0,0,0,0,0,0],"id":27,"left_children":[1,3,5,-1,7,-1,-1,-1,-1],"loss_changes":[4.6036938E1,9.403069E0,2.9975536E1,0E0,1.6026033E1,0E0,0E0,0E0,0E0],"parents":[2147483647,0,0,1,1,2,2,4,4],"right_children":[2,4,6,-1,8,-1,-1,-1,-1],"split_conditions":[8.469944E-1,5.9127305E-3,6.888603E-3,1.7440427E-2,1.1999965E0,5.2734395E-3,-2.6445039E-2,1.5005414E-2,-1.2494452E-2],"split_indices":[0,15,9,0,19,0,0,0,0],"split_type":[0,0,0,0,0,0,0,0,0],"sum_hessian":[8.955174E1,6.0585495E1,2.8966246E1,3.8710217E1,2.1875278E1,1.3919495E1,1.5046751E1,1.357686E1,8.298418E0],"tree_param":{"num_deleted":"0","num_feature":"25","num_nodes":"9","size_leaf_vector":"1"}},{"base_weights":[4.4971142E-2,5.804018E-1,-1.3783354E0,1.7536843E-2,-2.5995506E-2,-3.2435697E-2,-7.364966E-3,-2.01265E-2,9.097757E-3],"categories":[],"categories_nodes":[],"categories_segments":[],"categories_sizes":[],"default_left":[0,0,0,0,0,0,0,0,0],"id":28,"left_children":[1,3,5,-1,7,-1,-1,-1,-1],"loss_changes":[5.028806E1,1.59501095E1,1.1066109E1,0E0,1.7432657E1,0E0,0E0,0E0,0E0],"parents":[2147483647,0,0,1,1,2,2,4,4],"right_children":[2,4,6,-1,8,-1,-1,-1,-1],"split_conditions":[1.664003E1,5.407065E-1,4.9587142E-1,1.7536843E-2,4.5434996E-1,-3.2435697E-2,-7.364966E-3,-2.01265E-2,9.097757E-3],"split_indices":[14,2,20,0,10,0,0,0,0],"split_type":[0,0,0,0,0,0,0,0,0],"sum_hessian":[6.6121765E1,4.81124E1,1.800936E1,2.5519089E1,2.2593313E1,1.0101125E1,7.908235E0,7.4159737E0,1.517734E1],"tree_param":{"num_deleted":"0","num_feature":"25","num_nodes":"9","size_leaf_vector":"1"}},{"base_weights":[1.0910469E-1,-4.741182E-1,1.54527845E-2,1.1191899E-2,-1.4858847E0,-0E0,-3.2048766E-2],"categories":[],"categories_nodes":[],"categories_segments":[],"categories_sizes":[],"default_left":[0,0,0,0,0,0,0],"id":29,"left_children":[1,3,-1,-1,5,-1,-1],"loss_changes":[3.8273006E1,5.3920807E1,0E0,0E0,2.0487152E1,0E0,0E0],"parents":[2147483647,0,0,1,1,4,4],"right_children":[2,4,-1,-1,6,-1,-1],"split_conditions":[4.8754492E-1,5.650951E-1,1.54527845E-2,1.1191899E-2,1.0639175E0,-0E0,-3.2048766E-2],"split_indices":[1,6,0,0,17,0,0],"split_type":[0,0,0,0,0,0,0],"sum_hessian":[7.4459145E1,4.4689384E1,2.9769758E1,2.0474419E1,2.4214968E1,6.635399E0,1.7579569E1],"tree_param":{"num_deleted":"0","num_feature":"25","num_nodes":"7","size_leaf_vector":"1"}},{"base_weights":[2.8296983E-1,1.1013165E-2,-1.6434748E-2],"categories":[],"categories_nodes":[],"categories_segments":[],"categories_sizes":[],"default_left":[0,0,0],"id":30,"left_children":[1,-1,-1],"loss_changes":[4.1777176E1,0E0,0E0],"parents":[2147483647,0,0],"right_children":[2,-1,-1],"split_conditions":[1.664003E1,1.1013165E-2,-1.6434748E-2],"split_indices":[14,0,0],"split_type":[0,0,0],"sum_hessian":[7.42793E1,5.6514313E1,1.7764984E1],"tree_param":{"num_deleted":"0","num_feature":"25","num_nodes":"3","size_leaf_vector":"1"}},{"base_weights":[2.1109313E-1,5.6005E-1,-9.4722575E-1,-1.8986471E-2,1.3437769E-2,7.898565E-3,-3.150612E-2],"categories":[],"categories_nodes":[],"categories_segments":[],"categories_sizes":[],"default_left":[0,0,0,0,0,0,0],"id":31,"left_children":[1,3,5,-1,-1,-1,-1],"loss_changes":[2.912682E1,2.9531796E1,2.6014336E1,0E0,0E0,0E0,0E0],"parents":[2147483647,0,0,1,1,2,2],"right_children":[2,4,6,-1,-1,-1,-1],"split_conditions":[1.1993125E1,-3.3835926E0,3.9430633E-3,-1.8986471E-2,1.3437769E-2,7.898565E-3,-3.150612E-2],"split_indices":[8,5,15,0,0,0,0],"split_type":[0,0,0,0,0,0,0],"sum_hessian":[7.218244E1,5.555606E1,1.6626383E1,7.968162E0,4.7587902E1,6.997665E0,9.628717E0],"tree_param":{"num_deleted":"0","num_feature":"25","num_nodes":"7","size_leaf_vector":"1"}},{"base_weights":[1.5951855E-1,3.9264536E-1,-2.0853676E-2,6.2697023E-1,-9.04574E-3,-7.7603217E-3,1.2243466E-2],"categories":[],"categories_nodes":[],"categories_segments":[],"categories_sizes":[],"default_left":[0,0,0,0,0,0,0],"id":32,"left_children":[1,3,-1,5,-1,-1,-1],"loss_changes":[2.7121283E1,1.5425126E1,0E0,9.654877E0,0E0,0E0,0E0],"parents":[2147483647,0,0,1,1,3,3],"right_children":[2,4,-1,6,-1,-1,-1],"split_conditions":[2.4157217E-1,6.6042817E-1,-2.0853676E-2,3.8830054E-1,-9.04574E-3,-7.7603217E-3,1.2243466E-2],"split_indices":[18,2,0,1,0,0,0],"split_type":[0,0,0,0,0,0,0],"sum_hessian":[7.821177E1,6.7729355E1,1.0482411E1,5.4674267E1,1.3055089E1,6.58671E0,4.808756E1],"tree_param":{"num_deleted":"0","num_feature":"25","num_nodes":"7","size_leaf_vector":"1"}},{"base_weights":[-6.230105E-2,5.4385525E-1,-1.1329327E0,1.28305005E-2,-1.1482152E-2,-8.321716E-4,-3.0480376E-2],"categories":[],"categories_nodes":[],"categories_segments":[],"categories_sizes":[],"default_left":[0,0,0,0,0,0,0],"id":33,"left_children":[1,3,5,-1,-1,-1,-1],"loss_changes":[4.457554E1,1.5505206E1,2.1694988E1,0E0,0E0,0E0,0E0],"parents":[2147483647,0,0,1,1,2,2],"right_children":[2,4,6,-1,-1,-1,-1],"split_conditions":[1.0014137E1,1.2759465E1,6.3690627E-1,1.28305005E-2,-1.1482152E-2,-8.321716E-4,-3.0480376E-2],"split_indices":[8,14,2,0,0,0,0],"split_type":[0,0,0,0,0,0,0],"sum_hessian":[6.857038E1,4.3705948E1,2.4864437E1,3.600028E1,7.7056675E0,1.0783108E1,1.408133E1],"tree_param":{"num_deleted":"0","num_feature":"25","num_nodes":"7","size_leaf_vector":"1"}},{"base_weights":[1.4189832E-1,-5.438414E-1,1.6027516E-2,2.0473452E-1,-2.0149298E-2,-2.4528636E-2,1.688488E-2],"categories":[],"categories_nodes":[],"categories_segments":[],"categories_sizes":[],"default_left":[0,0,0,0,0,0,0],"id":34,"left_children":[1,3,-1,5,-1,-1,-1],"loss_changes":[4.5498207E1,2.3656662E1,0E0,3.248105E1,0E0,0E0,0E0],"parents":[2147483647,0,0,1,1,3,3],"right_children":[2,4,-1,6,-1,-1,-1],"split_conditions":[4.8778132E-1,1.197199E0,1.6027516E-2,-2.2513936E0,-2.0149298E-2,-2.4528636E-2,1.688488E-2],"split_indices":[1,19,0,5,0,0,0],"split_type":[0,0,0,0,0,0,0],"sum_hessian":[7.4970535E1,4.2134018E1,3.2836514E1,2.0939909E1,2.1194109E1,6.871603E0,1.4068306E1],"tree_param":{"num_deleted":"0","num_feature":"25","num_nodes":"7","size_leaf_vector":"1"}},{"base_weights":[-2.9297316E-2,1.3614478E-2,-3.8799864E-1,-6.6073775E-1,2.023075E-2,-3.0856086E-2,1.4294422E-3],"categories":[],"categories_nodes":[],"categories_segments":[],"categories_sizes":[],"default_left":[0,0,0,0,0,0,0],"id":35,"left_children":[1,-1,3,5,-1,-1,-1],"loss_changes":[2.0330357E1,0E0,2.0684223E1,3.878864E1,0E0,0E0,0E0],"parents":[2147483647,0,0,2,2,3,3],"right_children":[2,-1,4,6,-1,-1,-1],"split_conditions":[5.180514E-1,1.3614478E-2,3.1749865E-1,4.4918427E-1,2.023075E-2,-3.0856086E-2,1.4294422E-3],"split_indices":[6,0,18,1,0,0,0],"split_type":[0,0,0,0,0,0,0],"sum_hessian":[6.3126675E1,1.7879831E1,4.524684E1,3.9001377E1,6.2454653E0,1.426105E1,2.4740326E1],"tree_param":{"num_deleted":"0","num_feature":"25","num_nodes":"7","size_leaf_vector":"1"}},{"base_weights":[1.674854E-2,9.839398E-3,-1.1824573E0,1.3356352E-4,-2.5965398E-2],"categories":[],"categories_nodes":[],"categories_segments":[],"categories_sizes":[],"default_left":[0,0,0,0,0],"id":36,"left_children":[1,-1,3,-1,-1],"loss_changes":[4.7305534E1,0E0,1.2614532E1,0E0,0E0],"parents":[2147483647,0,0,2,2],"right_children":[2,-1,4,-1,-1],"split_conditions":[6.0458593E-3,9.839398E-3,2.0612754E-1,1.3356352E-4,-2.5965398E-2],"split_indices":[15,0,24,0,0],"split_type":[0,0,0,0,0],"sum_hessian":[6.445438E1,4.2724075E1,2.1730299E1,6.158295E0,1.5572003E1],"tree_param":{"num_deleted":"0","num_feature":"25","num_nodes":"5","size_leaf_vector":"1"}},{"base_weights":[-1.05283245E-1,-3.1689353E-2,2.6785493E-1,1.2944307E-2,-6.327167E-1,1.0890628E-3,-3.0133137E-2],"categories":[],"categories_nodes":[],"categories_segments":[],"categories_sizes":[],"default_left":[0,0,0,0,0,0,0],"id":37,"left_children":[1,-1,3,-1,5,-1,-1],"loss_changes":[4.2177303E1,0E0,2.4717392E1,0E0,1.7236977E1,0E0,0E0],"parents":[2147483647,0,0,2,2,4,4],"right_children":[2,-1,4,-1,6,-1,-1],"split_conditions":[4.3208125E-1,-3.1689353E-2,8.45187E-1,1.2944307E-2,6.6042817E-1,1.0890628E-3,-3.0133137E-2],"split_indices":[3,0,0,0,2,0,0],"split_type":[0,0,0,0,0,0,0],"sum_hessian":[5.8474644E1,9.559465E0,4.891518E1,3.0237171E1,1.8678007E1,1.2047878E1,6.6301303E0],"tree_param":{"num_deleted":"0","num_feature":"25","num_nodes":"7","size_leaf_vector":"1"}},{"base_weights":[2.2899026E-1,-6.698217E-1,7.588101E-1,1.4104746E-2,-1.161895E0,1.6083146E-2,-7.847566E-3,-2.8615762E-3,-2.9988842E-2],"categories":[],"categories_nodes":[],"categories_segments":[],"categories_sizes":[],"default_left":[0,0,0,0,0,0,0,0,0],"id":38,"left_children":[1,3,5,-1,7,-1,-1,-1,-1],"loss_changes":[3.303059E1,1.9860973E1,1.4975525E1,0E0,1.4243002E1,0E0,0E0,0E0,0E0],"parents":[2147483647,0,0,1,1,2,2,4,4],"right_children":[2,4,6,-1,8,-1,-1,-1,-1],"split_conditions":[4.5254192E-1,3.5044305E0,1.5653532E1,1.4104746E-2,7.333333E-2,1.6083146E-2,-7.847566E-3,-2.8615762E-3,-2.9988842E-2],"split_indices":[10,8,14,0,16,0,0,0,0],"split_type":[0,0,0,0,0,0,0,0,0],"sum_hessian":[6.9337715E1,2.5624853E1,4.371286E1,6.0455394E0,1.9579313E1,3.6076984E1,7.635877E0,8.614417E0,1.0964897E1],"tree_param":{"num_deleted":"0","num_feature":"25","num_nodes":"9","size_leaf_vector":"1"}},{"base_weights":[2.0983627E-1,-3.716414E-1,1.7429112E-2,-1.2411206E0,6.0253376E-3,-3.0108526E-2,4.919654E-3],"categories":[],"categories_nodes":[],"categories_segments":[],"categories_sizes":[],"default_left":[0,0,0,0,0,0,0],"id":39,"left_children":[1,3,-1,5,-1,-1,-1],"loss_changes":[3.727932E1,2.836643E1,0E0,2.1605684E1,0E0,0E0,0E0],"parents":[2147483647,0,0,1,1,3,3],"right_children":[2,4,-1,6,-1,-1,-1],"split_conditions":[4.94852E-1,1.5623182E0,1.7429112E-2,1.2583333E-1,6.0253376E-3,-3.0108526E-2,4.919654E-3],"split_indices":[1,7,0,16,0,0,0],"split_type":[0,0,0,0,0,0,0],"sum_hessian":[7.0616554E1,4.2917233E1,2.7699322E1,2.005673E1,2.2860504E1,1.3978624E1,6.0781054E0],"tree_param":{"num_deleted":"0","num_feature":"25","num_nodes":"7","size_leaf_vector":"1"}},{"base_weights":[1.2191029E-1,5.885197E-1,-2.2902597E-2,-1.0041031E-2,1.2149307E-2],"categories":[],"categories_nodes":[],"categories_segments":[],"categories_sizes":[],"default_left":[0,0,0,0,0],"id":40,"left_children":[1,3,-1,-1,-1],"loss_changes":[4.978107E1,1.214283E1,0E0,0E0,0E0],"parents":[2147483647,0,0,1,1],"right_children":[2,4,-1,-1,-1],"split_conditions":[6.6042817E-1,3.9535425E0,-2.2902597E-2,-1.0041031E-2,1.2149307E-2],"split_indices":[2,22,0,0,0],"split_type":[0,0,0,0,0],"sum_hessian":[6.735206E1,5.2115425E1,1.5236634E1,6.845505E0,4.526992E1],"tree_param":{"num_deleted":"0","num_feature":"25","num_nodes":"5","size_leaf_vector":"1"}},{"base_weights":[7.905533E-2,-1.0010614E0,3.7286988E-1,-3.0214319E-2,-0E0,1.1009233E-2,-1.3256943E-2],"categories":[],"categories_nodes":[],"categories_segments":[],"categories_sizes":[],"default_left":[0,0,0,0,0,0,0],"id":41,"left_children":[1,3,5,-1,-1,-1,-1],"loss_changes":[1.8705782E1,1.169056E1,1.8870092E1,0E0,0E0,0E0,0E0],"parents":[2147483647,0,0,1,1,2,2],"right_children":[2,4,6,-1,-1,-1,-1],"split_conditions":[4.3315232E-1,-2.794304E0,8.646566E-1,-3.0214319E-2,-0E0,1.1009233E-2,-1.3256943E-2],"split_indices":[3,5,0,0,0,0,0],"split_type":[0,0,0,0,0,0,0],"sum_hessian":[5.9196358E1,1.2565937E1,4.663042E1,6.4948816E0,6.0710554E0,3.6753475E1,9.876944E0],"tree_param":{"num_deleted":"0","num_feature":"25","num_nodes":"7","size_leaf_vector":"1"}},{"base_weights":[7.542749E-2,-9.3072546E-1,5.9479564E-1,-7.67591E-3,-3.117121E-2,1.705501E-2,-0E0,-1.8939031E-2,9.97732E-3],"categories":[],"categories_nodes":[],"categories_segments":[],"categories_sizes":[],"default_left":[0,0,0,0,0,0,0,0,0],"id":42,"left_children":[1,3,5,-1,-1,-1,7,-1,-1],"loss_changes":[3.486841E1,1.0279732E1,1.2916892E1,0E0,0E0,0E0,1.5562026E1,0E0,0E0],"parents":[2147483647,0,0,1,1,2,2,6,6],"right_children":[2,4,6,-1,-1,-1,8,-1,-1],"split_conditions":[4.448475E-1,4.2009315E-1,6.229659E0,-7.67591E-3,-3.117121E-2,1.705501E-2,1.552128E0,-1.8939031E-2,9.97732E-3],"split_indices":[10,10,8,0,0,0,7,0,0],"split_type":[0,0,0,0,0,0,0,0,0],"sum_hessian":[6.680794E1,2.2661045E1,4.4146896E1,1.61225E1,6.5385447E0,2.395351E1,2.0193388E1,6.9058456E0,1.3287542E1],"tree_param":{"num_deleted":"0","num_feature":"25","num_nodes":"9","size_leaf_vector":"1"}},{"base_weights":[2.0646288E-1,-1.821668E-2,4.3829408E-1,-1.3377196E-1,8.125482E-1,1.2094603E-2,-2.1763995E-2,1.8030614E-2,-4.225079E-3],"categories":[],"categories_nodes":[],"categories_segments":[],"categories_sizes":[],"default_left":[0,0,0,0,0,0,0,0,0],"id":43,"left_children":[1,-1,3,5,7,-1,-1,-1,-1],"loss_changes":[2.0519547E1,0E0,1.197111E1,2.5015003E1,1.256707E1,0E0,0E0,0E0,0E0],"parents":[2147483647,0,0,2,2,3,3,4,4],"right_children":[2,-1,4,6,8,-1,-1,-1,-1],"split_conditions":[-3.9943943E0,-1.821668E-2,4.4855908E-1,2.7492553E-1,1.3825245E0,1.2094603E-2,-2.1763995E-2,1.8030614E-2,-4.225079E-3],"split_indices":[5,0,10,21,19,0,0,0,0],"split_type":[0,0,0,0,0,0,0,0,0],"sum_hessian":[6.479262E1,9.284333E0,5.5508286E1,2.1817343E1,3.3690945E1,1.2617982E1,9.199361E0,2.5706453E1,7.984491E0],"tree_param":{"num_deleted":"0","num_feature":"25","num_nodes":"9","size_leaf_vector":"1"}},{"base_weights":[4.4567394E-1,1.39968125E-2,-3.7968713E-1,2.115599E-3,-2.6211688E-2],"categories":[],"categories_nodes":[],"categories_segments":[],"categories_sizes":[],"default_left":[0,0,0,0,0],"id":44,"left_children":[1,-1,3,-1,-1],"loss_changes":[2.7460093E1,0E0,1.7525253E1,0E0,0E0],"parents":[2147483647,0,0,2,2],"right_children":[2,-1,4,-1,-1],"split_conditions":[5.9127305E-3,1.39968125E-2,1.8450455E1,2.115599E-3,-2.6211688E-2],"split_indices":[15,0,14,0,0],"split_type":[0,0,0,0,0],"sum_hessian":[7.374499E1,4.7822495E1,2.5922497E1,1.8486588E1,7.435909E0],"tree_param":{"num_deleted":"0","num_feature":"25","num_nodes":"5","size_leaf_vector":"1"}},{"base_weights":[1.6604413E-1,-1.5796563E-1,1.6931131E-2,-2.5788851E-2,8.101017E-2,1.2113761E-2,-4.2878225E-1,-1.7776953E-2,1.9590069E-2],"categories":[],"categories_nodes":[],"categories_segments":[],"categories_sizes":[],"default_left":[0,0,0,0,0,0,0,0,0],"id":45,"left_children":[1,3,-1,-1,5,-1,7,-1,-1],"loss_changes":[1.8130909E1,1.6134514E1,0E0,0E0,1.3646947E1,0E0,2.6289352E1,0E0,0E0],"parents":[2147483647,0,0,1,1,4,4,6,6],"right_children":[2,4,-1,-1,6,-1,8,-1,-1],"split_conditions":[5.184352E-1,5.3553826E-1,1.6931131E-2,-2.5788851E-2,5.650951E-1,1.2113761E-2,8.109125E-1,-1.7776953E-2,1.9590069E-2],"split_indices":[3,23,0,0,6,0,11,0,0],"split_type":[0,0,0,0,0,0,0,0,0],"sum_hessian":[6.0591995E1,4.4675358E1,1.5916636E1,6.240238E0,3.843512E1,1.6380121E1,2.2055E1,1.5570693E1,6.484307E0],"tree_param":{"num_deleted":"0","num_feature":"25","num_nodes":"9","size_leaf_vector":"1"}},{"base_weights":[1.9861479E-1,1.2332594E-2,-2.1232021E-1,4.9375734E-1,-2.8511528E-2,1.4302427E-2,-9.2865545E-3],"categories":[],"categories_nodes":[],"categories_segments":[],"categories_sizes":[],"default_left":[0,0,0,0,0,0,0],"id":46,"left_children":[1,-1,3,5,-1,-1,-1],"loss_changes":[1.7394016E1,0E0,4.79323E1,1.3398351E1,0E0,0E0,0E0],"parents":[2147483647,0,0,2,2,3,3],"right_children":[2,-1,4,6,-1,-1,-1],"split_conditions":[2.1883859E-1,1.2332594E-2,6.112701E-1,5.3614914E-1,-2.8511528E-2,1.4302427E-2,-9.2865545E-3],"split_indices":[21,0,6,2,0,0,0],"split_type":[0,0,0,0,0,0,0],"sum_hessian":[7.136202E1,2.94073E1,4.195472E1,2.9121965E1,1.2832755E1,2.1074715E1,8.047251E0],"tree_param":{"num_deleted":"0","num_feature":"25","num_nodes":"7","size_leaf_vector":"1"}},{"base_weights":[1.6220868E-1,5.1411456E-1,-1.869835E-2,-6.413272E-1,9.266658E-1,-2.4907641E-2,8.744051E-3,1.8497262E-2,-4.760658E-3],"categories":[],"categories_nodes":[],"categories_segments":[],"categories_sizes":[],"default_left":[0,0,0,0,0,0,0,0,0],"id":47,"left_children":[1,3,-1,5,7,-1,-1,-1,-1],"loss_changes":[3.2365047E1,2.576804E1,0E0,1.6288008E1,1.2730583E1,0E0,0E0,0E0,0E0],"parents":[2147483647,0,0,1,1,3,3,4,4],"right_children":[2,4,-1,6,8,-1,-1,-1,-1],"split_conditions":[2.975285E0,1.6768043E0,-1.869835E-2,-2.1603012E0,6.4288104E-1,-2.4907641E-2,8.744051E-3,1.8497262E-2,-4.760658E-3],"split_indices":[23,17,0,5,6,0,0,0,0],"split_type":[0,0,0,0,0,0,0,0,0],"sum_hessian":[6.786636E1,5.3980804E1,1.3885557E1,1.4121129E1,3.9859676E1,7.933886E0,6.187243E0,3.3060867E1,6.79881E0],"tree_param":{"num_deleted":"0","num_feature":"25","num_nodes":"9","size_leaf_vector":"1"}},{"base_weights":[3.8339328E-2,-2.7924854E-2,2.6960424E-1,1.3734224E-2,-6.3441545E-1,1.1235171E-2,-1.2316399E0,-6.196368E-7,-3.0638339E-2],"categories":[],"categories_nodes":[],"categories_segments":[],"categories_sizes":[],"default_left":[0,0,0,0,0,0,0,0,0],"id":48,"left_children":[1,-1,3,-1,5,-1,7,-1,-1],"loss_changes":[2.7193409E1,0E0,3.1783913E1,0E0,1.8757236E1,0E0,1.4215328E1,0E0,0E0],"parents":[2147483647,0,0,2,2,4,4,6,6],"right_children":[2,-1,4,-1,6,-1,8,-1,-1],"split_conditions":[1.404334E0,-2.7924854E-2,8.240426E-1,1.3734224E-2,3.8866363E-3,1.1235171E-2,9.532954E-1,-6.196368E-7,-3.0638339E-2],"split_indices":[7,0,0,0,9,0,19,0,0],"split_type":[0,0,0,0,0,0,0,0,0],"sum_hessian":[6.487561E1,7.232708E0,5.7642902E1,3.451825E1,2.3124653E1,7.0143814E0,1.6110271E1,6.0559983E0,1.0054274E1],"tree_param":{"num_deleted":"0","num_feature":"25","num_nodes":"9","size_leaf_vector":"1"}},{"base_weights":[2.9024512E-2,1.0304231E-2,-7.785124E-1,1.037928E-1,-2.9004907E-2,-1.3970018E-2,1.1831838E-2],"categories":[],"categories_nodes":[],"categories_segments":[],"categories_sizes":[],"default_left":[0,0,0,0,0,0,0],"id":49,"left_children":[1,-1,3,5,-1,-1,-1],"loss_changes":[3.4391438E1,0E0,2.8313906E1,1.05300665E1,0E0,0E0,0E0],"parents":[2147483647,0,0,2,2,3,3],"right_children":[2,-1,4,6,-1,-1,-1],"split_conditions":[5.9127305E-3,1.0304231E-2,8.419808E-1,7.833333E-2,-2.9004907E-2,-1.3970018E-2,1.1831838E-2],"split_indices":[15,0,0,13,0,0,0],"split_type":[0,0,0,0,0,0,0],"sum_hessian":[6.758636E1,3.804493E1,2.9541424E1,1.6177853E1,1.3363572E1,6.3241644E0,9.853688E0],"tree_param":{"num_deleted":"0","num_feature":"25","num_nodes":"7","size_leaf_vector":"1"}},{"base_weights":[2.376946E-1,-3.127479E-1,1.6333178E-2,6.712366E-1,-1.2544093E0,2.1527693E-2,-7.5198854E-3,-3.4608416E-2,-1.2465635E-2],"categories":[],"categories_nodes":[],"categories_segments":[],"categories_sizes":[],"default_left":[0,0,0,0,0,0,0,0,0],"id":50,"left_children":[1,3,-1,5,7,-1,-1,-1,-1],"loss_changes":[3.1876097E1,3.938347E1,0E0,1.695116E1,9.150841E0,0E0,0E0,0E0,0E0],"parents":[2147483647,0,0,1,1,3,3,4,4],"right_children":[2,4,-1,6,8,-1,-1,-1,-1],"split_conditions":[4.8219118E-1,3.895789E-1,1.6333178E-2,1.2214366E0,2.0953538E0,2.1527693E-2,-7.5198854E-3,-3.4608416E-2,-1.2465635E-2],"split_indices":[1,1,0,19,23,0,0,0,0],"split_type":[0,0,0,0,0,0,0,0,0],"sum_hessian":[7.149818E1,4.2423534E1,2.9074644E1,2.0679083E1,2.1744452E1,1.2889239E1,7.789843E0,6.9169607E0,1.4827491E1],"tree_param":{"num_deleted":"0","num_feature":"25","num_nodes":"9","size_leaf_vector":"1"}},{"base_weights":[1.2086076E-1,-4.3593022E-1,5.691139E-1,8.742355E-4,-2.0724146E-2,1.8394982E-2,-3.3095664E-1,1.5188744E-2,-2.1323418E-2],"categories":[],"categories_nodes":[],"categories_segments":[],"categories_sizes":[],"default_left":[0,0,0,0,0,0,0,0,0],"id":51,"left_children":[1,3,5,-1,-1,-1,7,-1,-1],"loss_changes":[1.6011599E1,1.2624019E1,1.9609798E1,0E0,0E0,0E0,1.9284887E1,0E0,0E0],"parents":[2147483647,0,0,1,1,2,2,6,6],"right_children":[2,4,6,-1,-1,-1,8,-1,-1],"split_conditions":[7.333333E-2,1.1993125E1,4.9637244E-3,8.742355E-4,-2.0724146E-2,1.8394982E-2,2.2872469E-1,1.5188744E-2,-2.1323418E-2],"split_indices":[13,8,15,0,0,0,24,0,0],"split_type":[0,0,0,0,0,0,0,0,0],"sum_hessian":[6.408501E1,2.845476E1,3.5630245E1,1.8236172E1,1.0218588E1,2.1348942E1,1.4281304E1,6.2628465E0,8.018458E0],"tree_param":{"num_deleted":"0","num_feature":"25","num_nodes":"9","size_leaf_vector":"1"}},{"base_weights":[-9.3391055E-4,5.175618E-1,-9.657482E-1,1.9297032E-2,1.185805E-1,1.3153663E-2,-2.889026E-2,1.0844019E-2,-2.1264857E-2],"categories":[],"categories_nodes":[],"categories_segments":[],"categories_sizes":[],"default_left":[0,0,0,0,0,0,0,0,0],"id":52,"left_children":[1,3,5,-1,7,-1,-1,-1,-1],"loss_changes":[2.6608978E1,9.683294E0,2.9882309E1,0E0,1.8850363E1,0E0,0E0,0E0,0E0],"parents":[2147483647,0,0,1,1,2,2,4,4],"right_children":[2,4,6,-1,8,-1,-1,-1,-1],"split_conditions":[1.1242065E1,9.401744E-2,3.372141E-3,1.9297032E-2,2.6716447E-1,1.3153663E-2,-2.889026E-2,1.0844019E-2,-2.1264857E-2],"split_indices":[8,18,12,0,21,0,0,0,0],"split_type":[0,0,0,0,0,0,0,0,0],"sum_hessian":[5.3076447E1,3.4437103E1,1.8639345E1,1.2193004E1,2.2244099E1,6.0701833E0,1.2569161E1,1.6077633E1,6.1664667E0],"tree_param":{"num_deleted":"0","num_feature":"25","num_nodes":"9","size_leaf_vector":"1"}},{"base_weights":[-2.421451E-2,9.796716E-3,-1.0469315E0,1.1240376E-2,-2.4851687E-2],"categories":[],"categories_nodes":[],"categories_segments":[],"categories_sizes":[],"default_left":[0,0,0,0,0],"id":53,"left_children":[1,-1,3,-1,-1],"loss_changes":[4.5153316E1,0E0,2.5474112E1,0E0,0E0],"parents":[2147483647,0,0,2,2],"right_children":[2,-1,4,-1,-1],"split_conditions":[1.5514581E-1,9.796716E-3,7.789582E-1,1.1240376E-2,-2.4851687E-2],"split_indices":[18,0,0,0,0],"split_type":[0,0,0,0,0],"sum_hessian":[6.77211E1,4.130005E1,2.6421055E1,6.1614175E0,2.0259638E1],"tree_param":{"num_deleted":"0","num_feature":"25","num_nodes":"5","size_leaf_vector":"1"}},{"base_weights":[2.7058885E-1,1.4258532E-2,-2.2776078E-1,1.4911104E-3,-2.9823463E-2],"categories":[],"categories_nodes":[],"categories_segments":[],"categories_sizes":[],"default_left":[0,0,0,0,0],"id":54,"left_children":[1,-1,3,-1,-1],"loss_changes":[2.344907E1,0E0,2.2503761E1,0E0,0E0],"parents":[2147483647,0,0,2,2],"right_children":[2,-1,4,-1,-1],"split_conditions":[8.395341E0,1.4258532E-2,3.4337717E-1,1.4911104E-3,-2.9823463E-2],"split_indices":[14,0,4,0,0],"split_type":[0,0,0,0,0],"sum_hessian":[7.3028984E1,3.2029716E1,4.0999268E1,3.432346E1,6.6758065E0],"tree_param":{"num_deleted":"0","num_feature":"25","num_nodes":"5","size_leaf_vector":"1"}},{"base_weights":[3.1257638E-1,-1.9639185E-2,5.622786E-1,1.4075283E-2,-1.5668462E-1,-2.0324437E-2,1.0902314E-2],"categories":[],"categories_nodes":[],"categories_segments":[],"categories_sizes":[],"default_left":[0,0,0,0,0,0,0],"id":55,"left_children":[1,-1,3,-1,5,-1,-1],"loss_changes":[2.8794699E1,0E0,1.5586912E1,0E0,1.9875477E1,0E0,0E0],"parents":[2147483647,0,0,2,2,4,4],"right_children":[2,-1,4,-1,6,-1,-1],"split_conditions":[4.1946855E-1,-1.9639185E-2,1.7980766E-1,1.4075283E-2,4.7820863E-1,-2.0324437E-2,1.0902314E-2],"split_indices":[3,0,4,0,3,0,0],"split_type":[0,0,0,0,0,0,0],"sum_hessian":[7.370426E1,1.0046715E1,6.3657543E1,4.340202E1,2.0255526E1,8.724088E0,1.1531438E1],"tree_param":{"num_deleted":"0","num_feature":"25","num_nodes":"7","size_leaf_vector":"1"}},{"base_weights":[1.7749178E-1,4.2078424E-1,-2.7308252E-2,-3.155177E-2,1.7475551E-2,5.4286215E-3,-2.7555335E-2],"categories":[],"categories_nodes":[],"categories_segments":[],"categories_sizes":[],"default_left":[0,0,0,0,0,0,0],"id":56,"left_children":[1,3,-1,5,-1,-1,-1],"loss_changes":[2.9582966E1,1.7953524E1,0E0,2.2586226E1,0E0,0E0,0E0],"parents":[2147483647,0,0,1,1,3,3],"right_children":[2,4,-1,6,-1,-1,-1],"split_conditions":[2.268568E-1,4.9450007E-1,-2.7308252E-2,6.112701E-1,1.7475551E-2,5.4286215E-3,-2.7555335E-2],"split_indices":[18,1,0,6,0,0,0],"split_type":[0,0,0,0,0,0,0],"sum_hessian":[6.3524662E1,5.645632E1,7.06834E0,3.413719E1,2.2319132E1,2.7947857E1,6.189335E0],"tree_param":{"num_deleted":"0","num_feature":"25","num_nodes":"7","size_leaf_vector":"1"}},{"base_weights":[2.8056023E-1,-5.303008E-1,1.4173629E-2,-9.8393226E-1,2.4790606E-2,-1.3401788E-3,-2.286412E-2],"categories":[],"categories_nodes":[],"categories_segments":[],"categories_sizes":[],"default_left":[0,0,0,0,0,0,0],"id":57,"left_children":[1,3,-1,5,-1,-1,-1],"loss_changes":[4.0071644E1,3.281246E1,0E0,1.1965389E1,0E0,0E0,0E0],"parents":[2147483647,0,0,1,1,3,3],"right_children":[2,4,-1,6,-1,-1,-1],"split_conditions":[4.5927718E-1,4.8594907E-2,1.4173629E-2,1.1237782E-1,2.4790606E-2,-1.3401788E-3,-2.286412E-2],"split_indices":[10,15,0,18,0,0,0],"split_type":[0,0,0,0,0,0,0],"sum_hessian":[7.878572E1,3.4251087E1,4.4534634E1,2.825625E1,5.994837E0,9.924724E0,1.8331528E1],"tree_param":{"num_deleted":"0","num_feature":"25","num_nodes":"7","size_leaf_vector":"1"}},{"base_weights":[2.2499734E-1,-5.619651E-1,1.1774712E-2,7.7022198E-3,-1.838148E-2],"categories":[],"categories_nodes":[],"categories_segments":[],"categories_sizes":[],"default_left":[0,0,0,0,0],"id":58,"left_children":[1,3,-1,-1,-1],"loss_changes":[2.688425E1,1.683937E1,0E0,0E0,0E0],"parents":[2147483647,0,0,1,1],"right_children":[2,4,-1,-1,-1],"split_conditions":[1.5501928E0,1.9265498E-1,1.1774712E-2,7.7022198E-3,-1.838148E-2],"split_indices":[7,21,0,0,0],"split_type":[0,0,0,0,0],"sum_hessian":[6.45758E1,2.584782E1,3.8727978E1,9.436751E0,1.6411068E1],"tree_param":{"num_deleted":"0","num_feature":"25","num_nodes":"5","size_leaf_vector":"1"}},{"base_weights":[1.3209653E-1,8.325203E-3,-2.0152323E-2],"categories":[],"categories_nodes":[],"categories_segments":[],"categories_sizes":[],"default_left":[0,0,0],"id":59,"left_children":[1,-1,-1],"loss_changes":[3.964776E1,0E0,0E0],"parents":[2147483647,0,0],"right_children":[2,-1,-1],"split_conditions":[1.1993125E1,8.325203E-3,-2.0152323E-2],"split_indices":[8,0,0],"split_type":[0,0,0],"sum_hessian":[6.976641E1,5.44978E1,1.526861E1],"tree_param":{"num_deleted":"0","num_feature":"25","num_nodes":"3","size_leaf_vector":"1"}},{"base_weights":[-4.696945E-3,4.284039E-1,-1.0372322E0,8.074602E-1,-6.1676865E-3,2.060613E-3,-2.6411476E-2,-2.3862699E-3,1.7603891E-2],"categories":[],"categories_nodes":[],"categories_segments":[],"categories_sizes":[],"default_left":[0,0,0,0,0,0,0,0,0],"id":60,"left_children":[1,3,5,7,-1,-1,-1,-1,-1],"loss_changes":[2.6347813E1,1.2937946E1,1.3518589E1,8.821444E0,0E0,0E0,0E0,0E0,0E0],"parents":[2147483647,0,0,1,1,2,2,3,3],"right_children":[2,4,6,8,-1,-1,-1,-1,-1],"split_conditions":[6.6361636E-1,1.7516145E-1,1.1646087E0,-2.6510818E0,-6.1676865E-3,2.060613E-3,-2.6411476E-2,-2.3862699E-3,1.7603891E-2],"split_indices":[2,4,19,5,0,0,0,0,0],"split_type":[0,0,0,0,0,0,0,0,0],"sum_hessian":[5.874407E1,4.1297634E1,1.7446434E1,2.8382551E1,1.2915083E1,6.182161E0,1.1264273E1,6.9800115E0,2.1402538E1],"tree_param":{"num_deleted":"0","num_feature":"25","num_nodes":"9","size_leaf_vector":"1"}},{"base_weights":[2.4967557E-1,9.005063E-3,-4.834449E-1,1.519841E-2,-2.7160456E-2],"categories":[],"categories_nodes":[],"categories_segments":[],"categories_sizes":[],"default_left":[0,0,0,0,0],"id":61,"left_children":[1,-1,3,-1,-1],"loss_changes":[1.5794115E1,0E0,3.6990654E1,0E0,0E0],"parents":[2147483647,0,0,2,2],"right_children":[2,-1,4,-1,-1],"split_conditions":[1.1769834E1,9.005063E-3,5.923728E-1,1.519841E-2,-2.7160456E-2],"split_indices":[8,0,2,0,0],"split_type":[0,0,0,0,0],"sum_hessian":[6.591093E1,4.5717712E1,2.019321E1,9.299386E0,1.0893824E1],"tree_param":{"num_deleted":"0","num_feature":"25","num_nodes":"5","size_leaf_vector":"1"}},{"base_weights":[2.1574336E-1,-3.188211E-1,5.990258E-1,8.2066115E-3,-9.139436E-1,1.4957952E-2,-7.39228E-3,-2.8127842E-2,3.165862E-3],"categories":[],"categories_nodes":[],"categories_segments":[],"categories_sizes":[],"default_left":[0,0,0,0,0,0,0,0,0],"id":62,"left_children":[1,3,5,-1,7,-1,-1,-1,-1],"loss_changes":[1.2542185E1,1.2782797E1,1.3768766E1,0E0,1.5002051E1,0E0,0E0,0E0,0E0],"parents":[2147483647,0,0,1,1,2,2,4,4],"right_children":[2,4,6,-1,8,-1,-1,-1,-1],"split_conditions":[4.5655695E-1,5.138138E-1,7.66262E-3,8.2066115E-3,1.1262205E-2,1.4957952E-2,-7.39228E-3,-2.8127842E-2,3.165862E-3],"split_indices":[10,11,15,0,15,0,0,0,0],"split_type":[0,0,0,0,0,0,0,0,0],"sum_hessian":[6.1039413E1,2.534989E1,3.568952E1,1.0393929E1,1.4955962E1,2.6840572E1,8.848951E0,8.402268E0,6.5536933E0],"tree_param":{"num_deleted":"0","num_feature":"25","num_nodes":"9","size_leaf_vector":"1"}},{"base_weights":[2.1592872E-1,1.2084787E-2,-3.7680402E-1,-7.5212896E-1,1.1280013E-2,3.5549686E-3,-2.484124E-2],"categories":[],"categories_nodes":[],"categories_segments":[],"categories_sizes":[],"default_left":[0,0,0,0,0,0,0],"id":63,"left_children":[1,-1,3,5,-1,-1,-1],"loss_changes":[2.0963749E1,0E0,1.26073475E1,1.8939224E1,0E0,0E0,0E0],"parents":[2147483647,0,0,2,2,3,3],"right_children":[2,-1,4,6,-1,-1,-1],"split_conditions":[6.053209E-1,1.2084787E-2,5.04593E-1,1.1214128E1,1.1280013E-2,3.5549686E-3,-2.484124E-2],"split_indices":[2,0,1,14,0,0,0],"split_type":[0,0,0,0,0,0,0],"sum_hessian":[6.329209E1,3.2728054E1,3.0564037E1,2.2868397E1,7.695639E0,1.047018E1,1.2398218E1],"tree_param":{"num_deleted":"0","num_feature":"25","num_nodes":"7","size_leaf_vector":"1"}},{"base_weights":[1.748885E-1,-2.963735E-1,1.734244E-2,-6.8215734E-1,1.7163318E-2,-4.0978774E-2,-2.8071387E-2,-1.8720085E-2,8.576604E-3],"categories":[],"categories_nodes":[],"categories_segments":[],"categories_sizes":[],"default_left":[0,0,0,0,0,0,0,0,0],"id":64,"left_children":[1,3,-1,5,-1,7,-1,-1,-1],"loss_changes":[2.6011526E1,2.0933115E1,0E0,2.1644665E1,0E0,1.339939E1,0E0,0E0,0E0],"parents":[2147483647,0,0,1,1,3,3,5,5],"right_children":[2,4,-1,6,-1,8,-1,-1,-1],"split_conditions":[4.9446103E-1,5.0089335E-1,1.734244E-2,1.7980766E-1,1.7163318E-2,8.24887E-2,-2.8071387E-2,-1.8720085E-2,8.576604E-3],"split_indices":[3,1,0,4,0,4,0,0,0],"split_type":[0,0,0,0,0,0,0,0,0],"sum_hessian":[5.879861E1,3.9002647E1,1.9795965E1,3.0623991E1,8.378656E0,1.9511713E1,1.1112278E1,6.661561E0,1.2850152E1],"tree_param":{"num_deleted":"0","num_feature":"25","num_nodes":"9","size_leaf_vector":"1"}},{"base_weights":[1.2301639E-1,-4.3141446E-1,1.2918476E-2,1.3937073E-2,-8.886681E-1,-3.1496647E-1,-2.8405653E-2,9.966616E-3,-1.9901425E-2],"categories":[],"categories_nodes":[],"categories_segments":[],"categories_sizes":[],"default_left":[0,0,0,0,0,0,0,0,0],"id":65,"left_children":[1,3,-1,-1,5,7,-1,-1,-1],"loss_changes":[2.4262686E1,2.0940937E1,0E0,0E0,1.3476416E1,1.47248745E1,0E0,0E0,0E0],"parents":[2147483647,0,0,1,1,4,4,5,5],"right_children":[2,4,-1,-1,6,8,-1,-1,-1],"split_conditions":[4.7450563E-1,7.048533E-2,1.2918476E-2,1.3937073E-2,4.2946425E-1,4.195976E0,-2.8405653E-2,9.966616E-3,-1.9901425E-2],"split_indices":[1,18,0,0,1,22,0,0,0],"split_type":[0,0,0,0,0,0,0,0,0],"sum_hessian":[6.2056374E1,3.460811E1,2.7448263E1,8.81544E0,2.579267E1,1.6031944E1,9.760726E0,7.9735627E0,8.058381E0],"tree_param":{"num_deleted":"0","num_feature":"25","num_nodes":"9","size_leaf_vector":"1"}},{"base_weights":[1.51468E-1,6.6569763E-1,-5.26271E-1,1.8771274E-2,-3.964959E-3,-2.7898073E-2,1.14576565E-2],"categories":[],"categories_nodes":[],"categories_segments":[],"categories_sizes":[],"default_left":[0,0,0,0,0,0,0],"id":66,"left_children":[1,3,5,-1,-1,-1,-1],"loss_changes":[2.1474354E1,1.7412537E1,4.208515E1,0E0,0E0,0E0,0E0],"parents":[2147483647,0,0,1,1,2,2],"right_children":[2,4,6,-1,-1,-1,-1],"split_conditions":[7.956027E-3,6.1666667E-2,8.3333336E-2,1.8771274E-2,-3.964959E-3,-2.7898073E-2,1.14576565E-2],"split_indices":[9,13,13,0,0,0,0],"split_type":[0,0,0,0,0,0,0],"sum_hessian":[6.1565784E1,3.511296E1,2.6452824E1,2.227597E1,1.2836991E1,1.3279431E1,1.3173392E1],"tree_param":{"num_deleted":"0","num_feature":"25","num_nodes":"7","size_leaf_vector":"1"}},{"base_weights":[8.1198245E-2,3.3422008E-1,-1.7679159E-2,7.1163046E-1,-5.560997E-1,-9.400042E-3,1.5194258E-2,-2.3765787E-2,7.461706E-3],"categories":[],"categories_nodes":[],"categories_segments":[],"categories_sizes":[],"default_left":[0,0,0,0,0,0,0,0,0],"id":67,"left_children":[1,3,-1,5,7,-1,-1,-1,-1],"loss_changes":[1.9938911E1,1.8208565E1,0E0,1.3098888E1,1.6103603E1,0E0,0E0,0E0,0E0],"parents":[2147483647,0,0,1,1,3,3,4,4],"right_children":[2,4,-1,6,8,-1,-1,-1,-1],"split_conditions":[1.5027564E-2,2.7968633E0,-1.7679159E-2,1.6768043E0,3.3582258E0,-9.400042E-3,1.5194258E-2,-2.3765787E-2,7.461706E-3],"split_indices":[9,23,0,17,17,0,0,0,0],"split_type":[0,0,0,0,0,0,0,0,0],"sum_hessian":[6.531964E1,5.413033E1,1.1189316E1,3.8116405E1,1.6013922E1,6.233161E0,3.1883245E1,8.346671E0,7.66725E0],"tree_param":{"num_deleted":"0","num_feature":"25","num_nodes":"9","size_leaf_vector":"1"}},{"base_weights":[9.0151064E-2,-5.515236E-1,5.281652E-1,-1.6925919E-1,-2.573046E-2,-4.726823E-3,8.311082E-1,2.0407973E-2,-8.4825534E-1,1.978256E-2,9.59764E-4,4.1214842E-3,-2.8241025E-2],"categories":[],"categories_nodes":[],"categories_segments":[],"categories_sizes":[],"default_left":[0,0,0,0,0,0,0,0,0,0,0,0,0],"id":68,"left_children":[1,3,5,7,-1,-1,9,-1,11,-1,-1,-1,-1],"loss_changes":[1.8004116E1,1.0598667E1,9.679229E0,1.923961E1,0E0,0E0,9.236477E0,0E0,1.4331293E1,0E0,0E0,0E0,0E0],"parents":[2147483647,0,0,1,1,2,2,3,3,6,6,8,8],"right_children":[2,4,6,8,-1,-1,10,-1,12,-1,-1,-1,-1],"split_conditions":[3.008821E-1,1.8450455E1,4.5619014E-1,3.7725317E-1,-2.573046E-2,-4.726823E-3,5.485307E-1,2.0407973E-2,7.7352608E-3,1.978256E-2,9.59764E-4,4.1214842E-3,-2.8241025E-2],"split_indices":[24,14,20,10,0,0,11,0,9,0,0,0,0],"split_type":[0,0,0,0,0,0,0,0,0,0,0,0,0],"sum_hessian":[6.406796E1,2.5872877E1,3.8195084E1,1.9265116E1,6.6077623E0,1.0094254E1,2.810083E1,6.012622E0,1.3252494E1,1.784911E1,1.025172E1,6.0750813E0,7.1774125E0],"tree_param":{"num_deleted":"0","num_feature":"25","num_nodes":"13","size_leaf_vector":"1"}},{"base_weights":[1.8047154E-1,-4.777665E-1,1.1813972E-2,1.8644504E-1,-2.1849401E-2,1.7442394E-2,-7.1579013E-3],"categories":[],"categories_nodes":[],"categories_segments":[],"categories_sizes":[],"default_left":[0,0,0,0,0,0,0],"id":69,"left_children":[1,3,-1,5,-1,-1,-1],"loss_changes":[2.3807705E1,1.7988276E1,0E0,1.0188914E1,0E0,0E0,0E0],"parents":[2147483647,0,0,1,1,3,3],"right_children":[2,4,-1,6,-1,-1,-1],"split_conditions":[4.6821943E-1,1.7516145E-1,1.1813972E-2,4.5939353E-1,-2.1849401E-2,1.7442394E-2,-7.1579013E-3],"split_indices":[3,4,0,11,0,0,0],"split_type":[0,0,0,0,0,0,0],"sum_hessian":[6.2745113E1,2.9166986E1,3.3578125E1,1.6861336E1,1.2305651E1,6.9842873E0,9.877048E0],"tree_param":{"num_deleted":"0","num_feature":"25","num_nodes":"7","size_leaf_vector":"1"}},{"base_weights":[2.2735526E-1,4.344281E-1,-2.4417141E-2,1.2753691E-2,-2.5776023E-2],"categories":[],"categories_nodes":[],"categories_segments":[],"categories_sizes":[],"default_left":[0,0,0,0,0],"id":70,"left_children":[1,3,-1,-1,-1],"loss_changes":[2.6072638E1,5.0382927E1,0E0,0E0,0E0],"parents":[2147483647,0,0,1,1],"right_children":[2,4,-1,-1,-1],"split_conditions":[2.4157217E-1,6.6042817E-1,-2.4417141E-2,1.2753691E-2,-2.5776023E-2],"split_indices":[18,2,0,0,0],"split_type":[0,0,0,0,0],"sum_hessian":[7.0732254E1,6.3462116E1,7.270141E0,5.368853E1,9.773586E0],"tree_param":{"num_deleted":"0","num_feature":"25","num_nodes":"5","size_leaf_vector":"1"}},{"base_weights":[4.090354E-1,1.06709756E-1,1.618313E-2,1.6709764E-2,-2.0837654E-1,9.70038E-3,-5.0682E-1,-1.0030547E0,8.518021E-3,2.4506098E-3,-2.6485631E-2],"categories":[],"categories_nodes":[],"categories_segments":[],"categories_sizes":[],"default_left":[0,0,0,0,0,0,0,0,0,0,0],"id":71,"left_children":[1,3,-1,-1,5,-1,7,9,-1,-1,-1],"loss_changes":[1.4208232E1,1.5655138E1,0E0,0E0,9.515374E0,0E0,1.4900448E1,1.5767645E1,0E0,0E0,0E0],"parents":[2147483647,0,0,1,1,4,4,6,6,7,7],"right_children":[2,4,-1,-1,6,-1,8,10,-1,-1,-1],"split_conditions":[4.9676546E-1,3.5044305E0,1.618313E-2,1.6709764E-2,5.0522435E-1,9.70038E-3,2.0219846E-2,8.101132E-1,8.518021E-3,2.4506098E-3,-2.6485631E-2],"split_indices":[3,8,0,0,11,0,12,0,0,0,0],"split_type":[0,0,0,0,0,0,0,0,0,0,0],"sum_hessian":[7.57714E1,5.1249485E1,2.4521914E1,1.27381525E1,3.8511333E1,1.0079249E1,2.8432085E1,1.9401476E1,9.030608E0,7.1802E0,1.2221276E1],"tree_param":{"num_deleted":"0","num_feature":"25","num_nodes":"11","size_leaf_vector":"1"}},{"base_weights":[1.4734733E-1,4.3865258E-1,-6.976013E-1,-1.4517833E-1,1.6667886E-2,-1.995849E-2,4.4831247E-3,-1.0567567E-2,9.390509E-3],"categories":[],"categories_nodes":[],"categories_segments":[],"categories_sizes":[],"default_left":[0,0,0,0,0,0,0,0,0],"id":72,"left_children":[1,3,5,7,-1,-1,-1,-1,-1],"loss_changes":[1.5884016E1,1.7791582E1,9.523905E0,9.866632E0,0E0,0E0,0E0,0E0,0E0],"parents":[2147483647,0,0,1,1,2,2,3,3],"right_children":[2,4,6,8,-1,-1,-1,-1,-1],"split_conditions":[3.0494149E0,1.633239E0,2.08409E-2,4.8177236E-1,1.6667886E-2,-1.995849E-2,4.4831247E-3,-1.0567567E-2,9.390509E-3],"split_indices":[23,7,9,3,0,0,0,0,0],"split_type":[0,0,0,0,0,0,0,0,0],"sum_hessian":[6.4667656E1,4.8201256E1,1.64664E1,2.4873978E1,2.3327278E1,1.0445952E1,6.0204477E0,1.463104E1,1.0242938E1],"tree_param":{"num_deleted":"0","num_feature":"25","num_nodes":"9","size_leaf_vector":"1"}},{"base_weights":[4.3331917E-2,2.623977E-1,-1.8766431E-2,-5.072682E-1,1.3239525E-2,4.364831E-3,-2.7473265E-2],"categories":[],"categories_nodes":[],"categories_segments":[],"categories_sizes":[],"default_left":[0,0,0,0,0,0,0],"id":73,"left_children":[1,3,-1,5,-1,-1,-1],"loss_changes":[1.6288757E1,2.3124847E1,0E0,2.1880795E1,0E0,0E0,0E0],"parents":[2147483647,0,0,1,1,3,3],"right_children":[2,4,-1,6,-1,-1,-1],"split_conditions":[1.8167889E0,4.6939185E-1,-1.8766431E-2,1.1675725E0,1.3239525E-2,4.364831E-3,-2.7473265E-2],"split_indices":[19,3,0,19,0,0,0],"split_type":[0,0,0,0,0,0,0],"sum_hessian":[6.0197113E1,5.1273167E1,8.923945E0,2.20448E1,2.9228367E1,1.3471391E1,8.573408E0],"tree_param":{"num_deleted":"0","num_feature":"25","num_nodes":"7","size_leaf_vector":"1"}},{"base_weights":[2.7657163E-1,1.1484795E-2,-5.1552963E-1,-2.14751E-2,9.940002E-3],"categories":[],"categories_nodes":[],"categories_segments":[],"categories_sizes":[],"default_left":[0,0,0,0,0],"id":74,"left_children":[1,-1,3,-1,-1],"loss_changes":[2.610867E1,0E0,2.6034365E1,0E0,0E0],"parents":[2147483647,0,0,2,2],"right_children":[2,-1,4,-1,-1],"split_conditions":[6.0458593E-3,1.1484795E-2,4.7705978E-1,-2.14751E-2,9.940002E-3],"split_indices":[15,0,1,0,0],"split_type":[0,0,0,0,0],"sum_hessian":[7.1825806E1,4.5598335E1,2.6227465E1,1.5087648E1,1.1139816E1],"tree_param":{"num_deleted":"0","num_feature":"25","num_nodes":"5","size_leaf_vector":"1"}},{"base_weights":[-7.7370934E-2,3.398457E-1,-8.174015E-1,-8.112743E-3,1.5268061E-2,-2.7559442E-2,-0E0],"categories":[],"categories_nodes":[],"categories_segments":[],"categories_sizes":[],"default_left":[0,0,0,0,0,0,0],"id":75,"left_children":[1,3,5,-1,-1,-1,-1],"loss_changes":[1.8890564E1,2.1346684E1,1.6993824E1,0E0,0E0,0E0,0E0],"parents":[2147483647,0,0,1,1,2,2],"right_children":[2,4,6,-1,-1,-1,-1],"split_conditions":[6.025875E-1,4.604085E-1,8.75E-2,-8.112743E-3,1.5268061E-2,-2.7559442E-2,-0E0],"split_indices":[11,1,13,0,0,0,0],"split_type":[0,0,0,0,0,0,0],"sum_hessian":[6.0985397E1,3.8888012E1,2.2097383E1,1.6476475E1,2.2411537E1,1.0209504E1,1.1887879E1],"tree_param":{"num_deleted":"0","num_feature":"25","num_nodes":"7","size_leaf_vector":"1"}},{"base_weights":[2.446492E-1,1.415368E-2,-3.3349994E-1,-2.5289131E-2,1.7353235E-1,-1.2088501E-2,9.000916E-3],"categories":[],"categories_nodes":[],"categories_segments":[],"categories_sizes":[],"default_left":[0,0,0,0,0,0,0],"id":76,"left_children":[1,-1,3,-1,5,-1,-1],"loss_changes":[2.5149193E1,0E0,2.291873E1,0E0,9.486159E0,0E0,0E0],"parents":[2147483647,0,0,2,2,4,4],"right_children":[2,-1,4,-1,6,-1,-1],"split_conditions":[8.18793E-1,1.415368E-2,-3.584587E0,-2.5289131E-2,4.604061E-1,-1.2088501E-2,9.000916E-3],"split_indices":[0,0,5,0,20,0,0],"split_type":[0,0,0,0,0,0,0],"sum_hessian":[6.56037E1,3.0708696E1,3.4895004E1,9.945028E0,2.4949974E1,7.3457623E0,1.7604212E1],"tree_param":{"num_deleted":"0","num_feature":"25","num_nodes":"7","size_leaf_vector":"1"}},{"base_weights":[3.5508677E-1,-1.0684687E-1,1.7035682E-2,9.175641E-3,-9.3706006E-1,4.093148E-3,-2.567439E-2],"categories":[],"categories_nodes":[],"categories_segments":[],"categories_sizes":[],"default_left":[0,0,0,0,0,0,0],"id":77,"left_children":[1,3,-1,-1,5,-1,-1],"loss_changes":[2.0260347E1,2.0964098E1,0E0,0E0,1.4241372E1,0E0,0E0],"parents":[2147483647,0,0,1,1,4,4],"right_children":[2,4,-1,-1,6,-1,-1],"split_conditions":[4.9846402E-1,6.054955E-1,1.7035682E-2,9.175641E-3,3.851033E-1,4.093148E-3,-2.567439E-2],"split_indices":[3,2,0,0,10,0,0],"split_type":[0,0,0,0,0,0,0],"sum_hessian":[5.929182E1,3.630487E1,2.298695E1,1.9689972E1,1.6614899E1,6.090346E0,1.0524552E1],"tree_param":{"num_deleted":"0","num_feature":"25","num_nodes":"7","size_leaf_vector":"1"}},{"base_weights":[1.17878094E-1,3.9965287E-1,-1.5057025E-2,1.1954258E-2,-2.0259638E-1,-2.0675076E-2,1.1645643E-2],"categories":[],"categories_nodes":[],"categories_segments":[],"categories_sizes":[],"default_left":[0,0,0,0,0,0,0],"id":78,"left_children":[1,3,-1,-1,5,-1,-1],"loss_changes":[1.68632E1,9.794046E0,0E0,0E0,1.7652857E1,0E0,0E0],"parents":[2147483647,0,0,1,1,4,4],"right_children":[2,4,-1,-1,6,-1,-1],"split_conditions":[6.6114056E-1,5.488372E-1,-1.5057025E-2,1.1954258E-2,5.025941E-1,-2.0675076E-2,1.1645643E-2],"split_indices":[6,11,0,0,3,0,0],"split_type":[0,0,0,0,0,0,0],"sum_hessian":[5.557485E1,4.4181763E1,1.13930855E1,2.7631037E1,1.6550728E1,7.646482E0,8.904246E0],"tree_param":{"num_deleted":"0","num_feature":"25","num_nodes":"7","size_leaf_vector":"1"}},{"base_weights":[1.9113755E-1,1.1901763E-2,-6.0086507E-1,-2.0588977E-2,9.525572E-4],"categories":[],"categories_nodes":[],"categories_segments":[],"categories_sizes":[],"default_left":[0,0,0,0,0],"id":79,"left_children":[1,-1,3,-1,-1],"loss_changes":[2.8115349E1,0E0,1.246621E1,0E0,0E0],"parents":[2147483647,0,0,2,2],"right_children":[2,-1,4,-1,-1],"split_conditions":[5.9127305E-3,1.1901763E-2,1.0166667E-1,-2.0588977E-2,9.525572E-4],"split_indices":[15,0,16,0,0],"split_type":[0,0,0,0,0],"sum_hessian":[6.217559E1,3.62349E1,2.5940691E1,1.2546429E1,1.3394262E1],"tree_param":{"num_deleted":"0","num_feature":"25","num_nodes":"5","size_leaf_vector":"1"}},{"base_weights":[1.7232421E-1,1.3331417E-2,-2.5943834E-1,-8.506149E-1,1.1198943E-2,-2.90162E-2,1.3980273E-3],"categories":[],"categories_nodes":[],"categories_segments":[],"categories_sizes":[],"default_left":[0,0,0,0,0,0,0],"id":80,"left_children":[1,-1,3,5,-1,-1,-1],"loss_changes":[1.9425629E1,0E0,2.3194874E1,2.396815E1,0E0,0E0,0E0],"parents":[2147483647,0,0,2,2,3,3],"right_children":[2,-1,4,6,-1,-1,-1],"split_conditions":[5.3166742E-3,1.3331417E-2,1.2799726E-2,4.7516108E-1,1.1198943E-2,-2.90162E-2,1.3980273E-3],"split_indices":[9,0,12,1,0,0,0],"split_type":[0,0,0,0,0,0,0],"sum_hessian":[6.58241E1,2.56592E1,4.0164898E1,2.5096655E1,1.5068241E1,1.2187121E1,1.29095335E1],"tree_param":{"num_deleted":"0","num_feature":"25","num_nodes":"7","size_leaf_vector":"1"}},{"base_weights":[2.2387746E-1,-2.6127988E-1,5.8985376E-1,1.4539942E-2,-8.7386656E-1,-1.2268403E-2,1.3920728E-2,2.078872E-3,-3.0478865E-2],"categories":[],"categories_nodes":[],"categories_segments":[],"categories_sizes":[],"default_left":[0,0,0,0,0,0,0,0,0],"id":81,"left_children":[1,3,5,-1,7,-1,-1,-1,-1],"loss_changes":[1.1264271E1,1.9723879E1,1.4987301E1,0E0,1.9661736E1,0E0,0E0,0E0,0E0],"parents":[2147483647,0,0,1,1,2,2,4,4],"right_children":[2,4,6,-1,8,-1,-1,-1,-1],"split_conditions":[3.0402577E-1,8.419964E0,3.838326E-1,1.4539942E-2,6.056642E0,-1.2268403E-2,1.3920728E-2,2.078872E-3,-3.0478865E-2],"split_indices":[24,14,1,0,22,0,0,0,0],"split_type":[0,0,0,0,0,0,0,0,0],"sum_hessian":[6.3203743E1,2.7026373E1,3.617737E1,9.104562E0,1.7921812E1,6.4212847E0,2.9756083E1,9.199483E0,8.722329E0],"tree_param":{"num_deleted":"0","num_feature":"25","num_nodes":"9","size_leaf_vector":"1"}},{"base_weights":[1.5122157E-1,1.6109493E-2,-3.3196667E-1,2.0466544E-1,-1.9657848E-2,-1.0298643E-2,1.207022E-2],"categories":[],"categories_nodes":[],"categories_segments":[],"categories_sizes":[],"default_left":[0,0,0,0,0,0,0],"id":82,"left_children":[1,-1,3,5,-1,-1,-1],"loss_changes":[2.4951885E1,0E0,1.884999E1,1.1664661E1,0E0,0E0,0E0],"parents":[2147483647,0,0,2,2,3,3],"right_children":[2,-1,4,6,-1,-1,-1],"split_conditions":[6.067646E0,1.6109493E-2,5.735814E-1,4.9297458E-1,-1.9657848E-2,-1.0298643E-2,1.207022E-2],"split_indices":[14,0,11,20,0,0,0],"split_type":[0,0,0,0,0,0,0],"sum_hessian":[5.848974E1,2.083006E1,3.765968E1,2.37556E1,1.3904079E1,9.332727E0,1.4422873E1],"tree_param":{"num_deleted":"0","num_feature":"25","num_nodes":"7","size_leaf_vector":"1"}},{"base_weights":[-0E0,1.2001706E-2,-5.7762796E-1,-1.3272396E-3,-1.874349E-2],"categories":[],"categories_nodes":[],"categories_segments":[],"categories_sizes":[],"default_left":[0,0,0,0,0],"id":83,"left_children":[1,-1,3,-1,-1],"loss_changes":[2.364275E1,0E0,9.172288E0,0E0,0E0],"parents":[2147483647,0,0,2,2],"right_children":[2,-1,4,-1,-1],"split_conditions":[8.1084263E-1,1.2001706E-2,5.771332E-3,-1.3272396E-3,-1.874349E-2],"split_indices":[0,0,15,0,0],"split_type":[0,0,0,0,0],"sum_hessian":[5.3315384E1,2.2842686E1,3.04727E1,1.7117317E1,1.3355382E1],"tree_param":{"num_deleted":"0","num_feature":"25","num_nodes":"5","size_leaf_vector":"1"}},{"base_weights":[4.2399633E-1,1.654666E-2,-8.182931E-2,5.484221E-1,-9.2984265E-1,-1.3036055E-2,1.8253537E-2,-2.8188406E-2,6.2904386E-3],"categories":[],"categories_nodes":[],"categories_segments":[],"categories_sizes":[],"default_left":[0,0,0,0,0,0,0,0,0],"id":84,"left_children":[1,-1,3,5,7,-1,-1,-1,-1],"loss_changes":[2.0708832E1,0E0,1.9054358E1,1.7448566E1,1.7937695E1,0E0,0E0,0E0,0E0],"parents":[2147483647,0,0,2,2,3,3,4,4],"right_children":[2,-1,4,6,8,-1,-1,-1,-1],"split_conditions":[8.1084263E-1,1.654666E-2,4.2039095E-3,4.66027E-1,1.325E-1,-1.3036055E-2,1.8253537E-2,-2.8188406E-2,6.2904386E-3],"split_indices":[0,0,12,3,16,0,0,0,0],"split_type":[0,0,0,0,0,0,0,0,0],"sum_hessian":[6.409134E1,2.8531204E1,3.556014E1,2.0312637E1,1.52475E1,6.2227063E0,1.40899315E1,9.265236E0,5.9822645E0],"tree_param":{"num_deleted":"0","num_feature":"25","num_nodes":"9","size_leaf_vector":"1"}},{"base_weights":[4.4665404E-2,-2.5082797E-1,1.4801482E-2,2.6395446E-1,-1.8368213E-2,-8.750366E-3,1.60262E-2],"categories":[],"categories_nodes":[],"categories_segments":[],"categories_sizes":[],"default_left":[0,0,0,0,0,0,0],"id":85,"left_children":[1,3,-1,5,-1,-1,-1],"loss_changes":[1.478483E1,1.9825083E1,0E0,1.6695131E1,0E0,0E0,0E0],"parents":[2147483647,0,0,1,1,3,3],"right_children":[2,4,-1,6,-1,-1,-1],"split_conditions":[4.9257085E-1,6.3426334E-1,1.4801482E-2,8.2234675E-3,-1.8368213E-2,-8.750366E-3,1.60262E-2],"split_indices":[10,2,0,12,0,0,0],"split_type":[0,0,0,0,0,0,0],"sum_hessian":[5.510097E1,4.140392E1,1.3697053E1,2.6507942E1,1.4895976E1,1.26526165E1,1.3855326E1],"tree_param":{"num_deleted":"0","num_feature":"25","num_nodes":"7","size_leaf_vector":"1"}},{"base_weights":[1.4465871E-1,1.25150895E-2,-4.3816808E-1,-7.36799E-2,-1.8622426E-2,-1.5701631E-2,6.3853273E-3],"categories":[],"categories_nodes":[],"categories_segments":[],"categories_sizes":[],"default_left":[0,0,0,0,0,0,0],"id":86,"left_children":[1,-1,3,5,-1,-1,-1],"loss_changes":[2.6772541E1,0E0,9.9748535E0,1.1299051E1,0E0,0E0,0E0],"parents":[2147483647,0,0,2,2,3,3],"right_children":[2,-1,4,6,-1,-1,-1],"split_conditions":[5.650951E-1,1.25150895E-2,2.975285E0,2.0669773E0,-1.8622426E-2,-1.5701631E-2,6.3853273E-3],"split_indices":[6,0,23,17,0,0,0],"split_type":[0,0,0,0,0,0,0],"sum_hessian":[6.9874756E1,3.297017E1,3.6904587E1,2.498844E1,1.1916149E1,8.617271E0,1.6371168E1],"tree_param":{"num_deleted":"0","num_feature":"25","num_nodes":"7","size_leaf_vector":"1"}},{"base_weights":[2.5549102E-1,8.111366E-3,-7.067108E-1,3.5311945E-3,-2.3116458E-2],"categories":[],"categories_nodes":[],"categories_segments":[],"categories_sizes":[],"default_left":[0,0,0,0,0],"id":87,"left_children":[1,-1,3,-1,-1],"loss_changes":[1.6814327E1,0E0,1.0373308E1,0E0,0E0],"parents":[2147483647,0,0,2,2],"right_children":[2,-1,4,-1,-1],"split_conditions":[6.6468996E-1,8.111366E-3,1.3846296E0,3.5311945E-3,-2.3116458E-2],"split_indices":[6,0,19,0,0],"split_type":[0,0,0,0,0],"sum_hessian":[6.638626E1,5.2214554E1,1.4171708E1,6.3458147E0,7.8258934E0],"tree_param":{"num_deleted":"0","num_feature":"25","num_nodes":"5","size_leaf_vector":"1"}},{"base_weights":[7.17376E-2,4.8905638E-1,-1.4561825E-2,1.2020684E-2,-4.734897E-3],"categories":[],"categories_nodes":[],"categories_segments":[],"categories_sizes":[],"default_left":[0,0,0,0,0],"id":88,"left_children":[1,3,-1,-1,-1],"loss_changes":[2.402443E1,9.093204E0,0E0,0E0,0E0],"parents":[2147483647,0,0,1,1],"right_children":[2,4,-1,-1,-1],"split_conditions":[1.1409369E1,1.197199E0,-1.4561825E-2,1.2020684E-2,-4.734897E-3],"split_indices":[8,19,0,0,0],"split_type":[0,0,0,0,0],"sum_hessian":[5.7495117E1,4.0699566E1,1.679555E1,3.0182955E1,1.0516613E1],"tree_param":{"num_deleted":"0","num_feature":"25","num_nodes":"5","size_leaf_vector":"1"}},{"base_weights":[3.1128997E-1,-2.8238052E-1,9.9529E-3,-9.396019E-1,2.657026E-2,-2.6153577E-2,8.029781E-3],"categories":[],"categories_nodes":[],"categories_segments":[],"categories_sizes":[],"default_left":[0,0,0,0,0,0,0],"id":89,"left_children":[1,3,-1,5,-1,-1,-1],"loss_changes":[1.3335539E1,3.1453264E1,0E0,1.9603432E1,0E0,0E0,0E0],"parents":[2147483647,0,0,1,1,3,3],"right_children":[2,4,-1,6,-1,-1,-1],"split_conditions":[1.5019882E0,3.753432E-2,9.9529E-3,1.9939016E1,2.657026E-2,-2.6153577E-2,8.029781E-3],"split_indices":[7,9,0,8,0,0,0],"split_type":[0,0,0,0,0,0,0],"sum_hessian":[6.874203E1,2.4211567E1,4.453046E1,1.8232645E1,5.978921E0,1.2172557E1,6.060089E0],"tree_param":{"num_deleted":"0","num_feature":"25","num_nodes":"7","size_leaf_vector":"1"}},{"base_weights":[3.1356376E-1,-1.310653E-1,1.3091167E-2,-5.173076E-1,2.3091119E-2,-2.7178703E-2,1.2183193E-1,-9.6303215E-3,1.8928492E-2],"categories":[],"categories_nodes":[],"categories_segments":[],"categories_sizes":[],"default_left":[0,0,0,0,0,0,0,0,0],"id":90,"left_children":[1,3,-1,5,-1,-1,7,-1,-1],"loss_changes":[1.3649799E1,1.9354004E1,0E0,1.9998835E1,0E0,0E0,1.340146E1,0E0,0E0],"parents":[2147483647,0,0,1,1,3,3,6,6],"right_children":[2,4,-1,6,-1,-1,8,-1,-1],"split_conditions":[1.6238095E0,2.7934141E-2,1.3091167E-2,2.2783856E0,2.3091119E-2,-2.7178703E-2,5.336221E-1,-9.6303215E-3,1.8928492E-2],"split_indices":[7,12,0,17,0,0,20,0,0],"split_type":[0,0,0,0,0,0,0,0,0],"sum_hessian":[5.8173527E1,3.1344154E1,2.6829372E1,2.534009E1,6.004064E0,8.770772E0,1.6569317E1,9.807418E0,6.7618995E0],"tree_param":{"num_deleted":"0","num_feature":"25","num_nodes":"9","size_leaf_vector":"1"}},{"base_weights":[1.5035617E-1,5.314213E-1,-2.352678E-2,1.3311035E-2,-1.2877443E-1,-1.3183192E-2,1.4339948E-2],"categories":[],"categories_nodes":[],"categories_segments":[],"categories_sizes":[],"default_left":[0,0,0,0,0,0,0],"id":91,"left_children":[1,3,-1,-1,5,-1,-1],"loss_changes":[3.579611E1,9.895314E0,0E0,0E0,1.1220639E1,0E0,0E0],"parents":[2147483647,0,0,1,1,4,4],"right_children":[2,4,-1,-1,6,-1,-1],"split_conditions":[6.6644335E-1,8.4845734E-1,-2.352678E-2,1.3311035E-2,8.668745E0,-1.3183192E-2,1.4339948E-2],"split_indices":[6,0,0,0,22,0,0],"split_type":[0,0,0,0,0,0,0],"sum_hessian":[5.6923496E1,4.6337807E1,1.05856905E1,3.1326824E1,1.50109825E1,8.991069E0,6.019913E0],"tree_param":{"num_deleted":"0","num_feature":"25","num_nodes":"7","size_leaf_vector":"1"}},{"base_weights":[-5.7108883E-2,8.280209E-3,-4.3067083E-1,3.9450657E-3,-1.7960181E-2],"categories":[],"categories_nodes":[],"categories_segments":[],"categories_sizes":[],"default_left":[0,0,0,0,0],"id":92,"left_children":[1,-1,3,-1,-1],"loss_changes":[1.1586593E1,0E0,1.6051239E1,0E0,0E0],"parents":[2147483647,0,0,2,2],"right_children":[2,-1,4,-1,-1],"split_conditions":[8.419964E0,8.280209E-3,5.2403808E-3,3.9450657E-3,-1.7960181E-2],"split_indices":[14,0,15,0,0],"split_type":[0,0,0,0,0],"sum_hessian":[5.2895977E1,2.0437706E1,3.245827E1,1.6549643E1,1.590863E1],"tree_param":{"num_deleted":"0","num_feature":"25","num_nodes":"5","size_leaf_vector":"1"}},{"base_weights":[8.807215E-3,-6.4122444E-1,4.6653548E-1,6.413733E-3,-1.9405054E-2,-8.486029E-2,1.6755538E-2,1.4700902E-2,-1.348172E-2],"categories":[],"categories_nodes":[],"categories_segments":[],"categories_sizes":[],"default_left":[0,0,0,0,0,0,0,0,0],"id":93,"left_children":[1,3,5,-1,-1,7,-1,-1,-1],"loss_changes":[1.5678809E1,1.3806777E1,1.0507845E1,0E0,0E0,1.2883775E1,0E0,0E0,0E0],"parents":[2147483647,0,0,1,1,2,2,5,5],"right_children":[2,4,6,-1,-1,8,-1,-1,-1],"split_conditions":[4.4075447E-1,2.5345848E-3,3.25512E-1,6.413733E-3,-1.9405054E-2,1.753569E-1,1.6755538E-2,1.4700902E-2,-1.348172E-2],"split_indices":[10,15,24,0,0,21,0,0,0],"split_type":[0,0,0,0,0,0,0,0,0],"sum_hessian":[5.2770332E1,2.1689226E1,3.1081104E1,7.8067274E0,1.3882499E1,1.6159977E1,1.4921127E1,6.8991265E0,9.260851E0],"tree_param":{"num_deleted":"0","num_feature":"25","num_nodes":"9","size_leaf_vector":"1"}},{"base_weights":[4.4194537E-1,3.238915E-1,2.6185153E-2,5.4888445E-1,-2.3274567E-2,1.2237119E-2,-5.1229666E-3],"categories":[],"categories_nodes":[],"categories_segments":[],"categories_sizes":[],"default_left":[0,0,0,0,0,0,0],"id":94,"left_children":[1,3,-1,5,-1,-1,-1],"loss_changes":[9.903665E0,2.589132E1,0E0,1.1719311E1,0E0,0E0,0E0],"parents":[2147483647,0,0,1,1,3,3],"right_children":[2,4,-1,6,-1,-1,-1],"split_conditions":[5.4161754E-2,1.5243399E-2,2.6185153E-2,1.9691658E-1,-2.3274567E-2,1.2237119E-2,-5.1229666E-3],"split_indices":[12,9,0,18,0,0,0],"split_type":[0,0,0,0,0,0,0],"sum_hessian":[6.975121E1,6.375474E1,5.9964705E0,5.6780365E1,6.9743757E0,4.4923714E1,1.1856648E1],"tree_param":{"num_deleted":"0","num_feature":"25","num_nodes":"7","size_leaf_vector":"1"}},{"base_weights":[2.3573239E-1,6.929379E-1,-8.1229055E-1,3.099163E-1,2.0408079E-2,-2.7333086E-2,1.8283019E-3,-1.0371234E-2,1.3505574E-2],"categories":[],"categories_nodes":[],"categories_segments":[],"categories_sizes":[],"default_left":[0,0,0,0,0,0,0,0,0],"id":95,"left_children":[1,3,5,7,-1,-1,-1,-1,-1],"loss_changes":[2.95855E1,9.913664E0,1.6472486E1,1.4412917E1,0E0,0E0,0E0,0E0,0E0],"parents":[2147483647,0,0,1,1,2,2,3,3],"right_children":[2,4,6,8,-1,-1,-1,-1,-1],"split_conditions":[8.4845734E-1,5.0089335E-1,4.6025229E-1,1.5439234E0,2.0408079E-2,-2.7333086E-2,1.8283019E-3,-1.0371234E-2,1.3505574E-2],"split_indices":[0,1,1,7,0,0,0,0,0],"split_type":[0,0,0,0,0,0,0,0,0],"sum_hessian":[6.1776154E1,4.3097008E1,1.8679148E1,2.6654203E1,1.6442804E1,9.36999E0,9.309157E0,9.586747E0,1.7067457E1],"tree_param":{"num_deleted":"0","num_feature":"25","num_nodes":"9","size_leaf_vector":"1"}},{"base_weights":[2.8090066E-1,5.3610253E-1,-4.3224883E-1,1.2030034E-2,-7.4136495E-3,7.815391E-3,-2.2693943E-2],"categories":[],"categories_nodes":[],"categories_segments":[],"categories_sizes":[],"default_left":[0,0,0,0,0,0,0],"id":96,"left_children":[1,3,5,-1,-1,-1,-1],"loss_changes":[1.1347603E1,1.0904125E1,1.5606739E1,0E0,0E0,0E0,0E0],"parents":[2147483647,0,0,1,1,2,2],"right_children":[2,4,6,-1,-1,-1,-1],"split_conditions":[6.6361636E-1,1.0304235E1,1.9265498E-1,1.2030034E-2,-7.4136495E-3,7.815391E-3,-2.2693943E-2],"split_indices":[2,22,21,0,0,0,0],"split_type":[0,0,0,0,0,0,0],"sum_hessian":[6.227741E1,4.5996857E1,1.6280552E1,3.745818E1,8.538676E0,8.440239E0,7.840313E0],"tree_param":{"num_deleted":"0","num_feature":"25","num_nodes":"7","size_leaf_vector":"1"}},{"base_weights":[1.4773002E-1,8.632424E-3,-4.4740015E-1,7.4472423E-3,-1.9273262E-2],"categories":[],"categories_nodes":[],"categories_segments":[],"categories_sizes":[],"default_left":[0,0,0,0,0],"id":97,"left_children":[1,-1,3,-1,-1],"loss_changes":[1.4728955E1,0E0,1.7964993E1,0E0,0E0],"parents":[2147483647,0,0,2,2],"right_children":[2,-1,4,-1,-1],"split_conditions":[1.4973255E-1,8.632424E-3,8.20071E0,7.4472423E-3,-1.9273262E-2],"split_indices":[4,0,14,0,0],"split_type":[0,0,0,0,0],"sum_hessian":[6.1096527E1,3.649414E1,2.4602386E1,1.1233757E1,1.3368629E1],"tree_param":{"num_deleted":"0","num_feature":"25","num_nodes":"5","size_leaf_vector":"1"}},{"base_weights":[2.8009674E-1,9.967393E-3,-5.9308284E-3],"categories":[],"categories_nodes":[],"categories_segments":[],"categories_sizes":[],"default_left":[0,0,0],"id":98,"left_children":[1,-1,-1],"loss_changes":[1.4470799E1,0E0,0E0],"parents":[2147483647,0,0],"right_children":[2,-1,-1],"split_conditions":[1.7855653E-1,9.967393E-3,-5.9308284E-3],"split_indices":[4,0,0],"split_type":[0,0,0],"sum_hessian":[6.117477E1,3.978843E1,2.138634E1],"tree_param":{"num_deleted":"0","num_feature":"25","num_nodes":"3","size_leaf_vector":"1"}},{"base_weights":[2.3763092E-1,-3.6028722E-1,1.1915194E-2,1.2642349E-3,-2.2292545E-2],"categories":[],"categories_nodes":[],"categories_segments":[],"categories_sizes":[],"default_left":[0,0,0,0,0],"id":99,"left_children":[1,3,-1,-1,-1],"loss_changes":[1.866664E1,1.3163697E1,0E0,0E0,0E0],"parents":[2147483647,0,0,1,1],"right_children":[2,4,-1,-1,-1],"split_conditions":[1.5623182E0,1.1769834E1,1.1915194E-2,1.2642349E-3,-2.2292545E-2],"split_indices":[7,8,0,0,0],"split_type":[0,0,0,0,0],"sum_hessian":[5.9313145E1,2.7613863E1,3.1699284E1,1.9447557E1,8.166305E0],"tree_param":{"num_deleted":"0","num_feature":"25","num_nodes":"5","size_leaf_vector":"1"}},{"base_weights":[1.6855945E-1,7.819495E-3,-2.0013299E-2],"categories":[],"categories_nodes":[],"categories_segments":[],"categories_sizes":[],"default_left":[0,0,0],"id":100,"left_children":[1,-1,-1],"loss_changes":[2.7675371E1,0E0,0E0],"parents":[2147483647,0,0],"right_children":[2,-1,-1],"split_conditions":[9.268939E0,7.819495E-3,-2.0013299E-2],"split_indices":[22,0,0],"split_type":[0,0,0],"sum_hessian":[5.7747894E1,4.7060608E1,1.0687286E1],"tree_param":{"num_deleted":"0","num_feature":"25","num_nodes":"3","size_leaf_vector":"1"}},{"base_weights":[4.338056E-1],"categories":[],"categories_nodes":[],"categories_segments":[],"categories_sizes":[],"default_left":[0],"id":101,"left_children":[-1],"loss_changes":[0E0],"parents":[2147483647],"right_children":[-1],"split_conditions":[6.778612E-3],"split_indices":[0],"split_type":[0],"sum_hessian":[6.2785286E1],"tree_param":{"num_deleted":"0","num_feature":"25","num_nodes":"1","size_leaf_vector":"1"}},{"base_weights":[6.977143E-2,5.263949E-3,-6.555228E-1,5.5447645E-3,-2.391261E-2],"categories":[],"categories_nodes":[],"categories_segments":[],"categories_sizes":[],"default_left":[0,0,0,0,0],"id":102,"left_children":[1,-1,3,-1,-1],"loss_changes":[1.1266663E1,0E0,1.3921617E1,0E0,0E0],"parents":[2147483647,0,0,2,2],"right_children":[2,-1,4,-1,-1],"split_conditions":[1.1769834E1,5.263949E-3,6.227222E-1,5.5447645E-3,-2.391261E-2],"split_indices":[8,0,2,0,0],"split_type":[0,0,0,0,0],"sum_hessian":[5.836794E1,4.2787315E1,1.5580625E1,7.162159E0,8.418466E0],"tree_param":{"num_deleted":"0","num_feature":"25","num_nodes":"5","size_leaf_vector":"1"}},{"base_weights":[1.5416156E-1,-8.099873E-2,1.8110022E-2,3.0438215E-1,-2.528212E-2,9.186903E-3,-1.4542814E-2],"categories":[],"categories_nodes":[],"categories_segments":[],"categories_sizes":[],"default_left":[0,0,0,0,0,0,0],"id":103,"left_children":[1,3,-1,5,-1,-1,-1],"loss_changes":[1.3329144E1,2.6902393E1,0E0,1.25702505E1,0E0,0E0,0E0],"parents":[2147483647,0,0,1,1,3,3],"right_children":[2,4,-1,6,-1,-1,-1],"split_conditions":[7.9896444E-1,6.4288104E-1,1.8110022E-2,7.840922E-3,-2.528212E-2,9.186903E-3,-1.4542814E-2],"split_indices":[11,6,0,12,0,0,0],"split_type":[0,0,0,0,0,0,0],"sum_hessian":[5.582567E1,4.5135105E1,1.0690562E1,3.602007E1,9.115036E0,2.9378944E1,6.6411257E0],"tree_param":{"num_deleted":"0","num_feature":"25","num_nodes":"7","size_leaf_vector":"1"}},{"base_weights":[2.882629E-1,-1.696299E-1,1.3739884E-2,9.113938E-3,-7.0805925E-1,-2.4842096E-2,8.351759E-3],"categories":[],"categories_nodes":[],"categories_segments":[],"categories_sizes":[],"default_left":[0,0,0,0,0,0,0],"id":104,"left_children":[1,3,-1,-1,5,-1,-1],"loss_changes":[1.5228043E1,1.2742464E1,0E0,0E0,2.0297607E1,0E0,0E0],"parents":[2147483647,0,0,1,1,4,4],"right_children":[2,4,-1,-1,6,-1,-1],"split_conditions":[4.8754492E-1,7.54571E-3,1.3739884E-2,9.113938E-3,1.11666664E-1,-2.4842096E-2,8.351759E-3],"split_indices":[1,9,0,0,16,0,0],"split_type":[0,0,0,0,0,0,0],"sum_hessian":[5.5932755E1,3.139422E1,2.4538536E1,1.2991044E1,1.8403177E1,1.08246975E1,7.57848E0],"tree_param":{"num_deleted":"0","num_feature":"25","num_nodes":"7","size_leaf_vector":"1"}},{"base_weights":[1.8740875E-1,-4.7841373E-1,9.5727295E-3,4.256363E-3,-1.6245373E-2],"categories":[],"categories_nodes":[],"categories_segments":[],"categories_sizes":[],"default_left":[0,0,0,0,0],"id":105,"left_children":[1,3,-1,-1,-1],"loss_changes":[1.661051E1,9.673862E0,0E0,0E0,0E0],"parents":[2147483647,0,0,1,1],"right_children":[2,4,-1,-1,-1],"split_conditions":[4.6023655E-1,5.650951E-1,9.5727295E-3,4.256363E-3,-1.6245373E-2],"split_indices":[1,6,0,0,0],"split_type":[0,0,0,0,0],"sum_hessian":[5.8609997E1,2.2724838E1,3.588516E1,9.623091E0,1.3101748E1],"tree_param":{"num_deleted":"0","num_feature":"25","num_nodes":"5","size_leaf_vector":"1"}},{"base_weights":[3.417663E-1,-1.417301E-2,5.1463157E-1,1.0010971E-2,1.4337894E-2,-1.6365577E-2,1.14128515E-2],"categories":[],"categories_nodes":[],"categories_segments":[],"categories_sizes":[],"default_left":[0,0,0,0,0,0,0],"id":106,"left_children":[1,-1,3,5,-1,-1,-1],"loss_changes":[1.2670057E1,0E0,1.0424055E1,1.7601128E1,0E0,0E0,0E0],"parents":[2147483647,0,0,2,2,3,3],"right_children":[2,-1,4,6,-1,-1,-1],"split_conditions":[7.25E-2,-1.417301E-2,3.0003917E-1,7.333333E-2,1.4337894E-2,-1.6365577E-2,1.14128515E-2],"split_indices":[16,0,24,13,0,0,0],"split_type":[0,0,0,0,0,0,0],"sum_hessian":[5.8925236E1,7.0749516E0,5.1850285E1,2.3161602E1,2.8688683E1,9.313571E0,1.384803E1],"tree_param":{"num_deleted":"0","num_feature":"25","num_nodes":"7","size_leaf_vector":"1"}},{"base_weights":[2.6069542E-2,-1.5342587E-2,2.1089022E-1,-8.924009E-3,1.193907E-2],"categories":[],"categories_nodes":[],"categories_segments":[],"categories_sizes":[],"default_left":[0,0,0,0,0],"id":107,"left_children":[1,-1,3,-1,-1],"loss_changes":[9.736555E0,0E0,1.9370382E1,0E0,0E0],"parents":[2147483647,0,0,2,2],"right_children":[2,-1,4,-1,-1],"split_conditions":[7.1666665E-2,-1.5342587E-2,4.5391408E-1,-8.924009E-3,1.193907E-2],"split_indices":[16,0,10,0,0],"split_type":[0,0,0,0,0],"sum_hessian":[5.279605E1,8.073545E0,4.4722507E1,1.8432959E1,2.6289547E1],"tree_param":{"num_deleted":"0","num_feature":"25","num_nodes":"5","size_leaf_vector":"1"}},{"base_weights":[5.229279E-1,3.6921492E-1,2.4184264E-2,5.747453E-1,-2.1949705E-2,-1.1228447E-2,1.1735038E-2],"categories":[],"categories_nodes":[],"categories_segments":[],"categories_sizes":[],"default_left":[0,0,0,0,0,0,0],"id":108,"left_children":[1,3,-1,5,-1,-1,-1],"loss_changes":[1.1184191E1,2.2937382E1,0E0,1.2930344E1,0E0,0E0,0E0],"parents":[2147483647,0,0,1,1,3,3],"right_children":[2,4,-1,6,-1,-1,-1],"split_conditions":[3.2331232E-2,7.183397E-1,2.4184264E-2,1.1985267E0,-2.1949705E-2,-1.1228447E-2,1.1735038E-2],"split_indices":[12,6,0,17,0,0,0],"split_type":[0,0,0,0,0,0,0],"sum_hessian":[7.255913E1,6.3203686E1,9.355441E0,5.670577E1,6.4979177E0,6.7138653E0,4.9991905E1],"tree_param":{"num_deleted":"0","num_feature":"25","num_nodes":"7","size_leaf_vector":"1"}},{"base_weights":[1.5766893E-1,-3.7850168E-1,1.1932317E-2,-6.3769734E-1,1.0268005E-2,-2.9138392E-2,-8.094301E-2,1.3179346E-2,-1.5524587E-2],"categories":[],"categories_nodes":[],"categories_segments":[],"categories_sizes":[],"default_left":[0,0,0,0,0,0,0,0,0],"id":109,"left_children":[1,3,-1,5,-1,-1,7,-1,-1],"loss_changes":[2.1076061E1,9.184262E0,0E0,1.851898E1,0E0,0E0,1.6021E1,0E0,0E0],"parents":[2147483647,0,0,1,1,3,3,6,6],"right_children":[2,4,-1,6,-1,-1,8,-1,-1],"split_conditions":[-2.2513936E0,5.0703555E-1,1.1932317E-2,8.166666E-2,1.0268005E-2,-2.9138392E-2,3.9953554E-1,1.3179346E-2,-1.5524587E-2],"split_indices":[5,3,0,16,0,0,10,0,0],"split_type":[0,0,0,0,0,0,0,0,0],"sum_hessian":[6.4718636E1,3.4224384E1,3.0494251E1,2.7472206E1,6.7521787E0,8.502756E0,1.896945E1,9.354111E0,9.615339E0],"tree_param":{"num_deleted":"0","num_feature":"25","num_nodes":"9","size_leaf_vector":"1"}},{"base_weights":[-3.1720804E-6,-2.8512577E-2,2.8906128E-1,1.6642183E-2,-1.9566746E-2,3.0718315E-1,-1.8253352E-2,-1.4021086E-2,1.19006485E-2],"categories":[],"categories_nodes":[],"categories_segments":[],"categories_sizes":[],"default_left":[0,0,0,0,0,0,0,0,0],"id":110,"left_children":[1,-1,3,-1,5,7,-1,-1,-1],"loss_changes":[2.8767735E1,0E0,1.1317865E1,0E0,1.2605072E1,1.4121714E1,0E0,0E0,0E0],"parents":[2147483647,0,0,2,2,4,4,5,5],"right_children":[2,-1,4,-1,6,8,-1,-1,-1],"split_conditions":[7.25E-2,-2.8512577E-2,5.046022E-3,1.6642183E-2,8.244774E0,2.100939E0,-1.8253352E-2,-1.4021086E-2,1.19006485E-2],"split_indices":[16,0,9,0,22,17,0,0,0],"split_type":[0,0,0,0,0,0,0,0,0],"sum_hessian":[5.4168015E1,7.468242E0,4.669977E1,1.3406623E1,3.3293148E1,2.5832745E1,7.4604034E0,6.999083E0,1.8833662E1],"tree_param":{"num_deleted":"0","num_feature":"25","num_nodes":"9","size_leaf_vector":"1"}},{"base_weights":[2.0978042E-1,1.0597088E-2,-5.573391E-1,-7.11579E-2,-2.2884125E-2,-1.5212888E-2,1.0475531E-2],"categories":[],"categories_nodes":[],"categories_segments":[],"categories_sizes":[],"default_left":[0,0,0,0,0,0,0],"id":111,"left_children":[1,-1,3,5,-1,-1,-1],"loss_changes":[2.1198862E1,0E0,9.6152115E0,9.792865E0,0E0,0E0,0E0],"parents":[2147483647,0,0,2,2,3,3],"right_children":[2,-1,4,6,-1,-1,-1],"split_conditions":[8.45187E-1,1.0597088E-2,1.04166664E-1,9E-2,-2.2884125E-2,-1.5212888E-2,1.0475531E-2],"split_indices":[0,0,16,16,0,0,0],"split_type":[0,0,0,0,0,0,0],"sum_hessian":[5.895516E1,3.6708374E1,2.2246784E1,1.4576041E1,7.6707425E0,6.652778E0,7.9232626E0],"tree_param":{"num_deleted":"0","num_feature":"25","num_nodes":"7","size_leaf_vector":"1"}},{"base_weights":[-1.1431918E-1,-5.4013646E-1,1.4148023E-2,-1.0247298E0,9.212433E-3,9.485913E-3,-2.4506604E-2],"categories":[],"categories_nodes":[],"categories_segments":[],"categories_sizes":[],"default_left":[0,0,0,0,0,0,0],"id":112,"left_children":[1,3,-1,5,-1,-1,-1],"loss_changes":[2.143368E1,1.9208197E1,0E0,2.1910946E1,0E0,0E0,0E0],"parents":[2147483647,0,0,1,1,3,3],"right_children":[2,4,-1,6,-1,-1,-1],"split_conditions":[4.9766704E-1,1.6210085E-2,1.4148023E-2,2.6341994E0,9.212433E-3,9.485913E-3,-2.4506604E-2],"split_indices":[10,12,0,8,0,0,0],"split_type":[0,0,0,0,0,0,0],"sum_hessian":[4.946873E1,3.4985294E1,1.4483435E1,2.4562376E1,1.0422921E1,6.078949E0,1.8483427E1],"tree_param":{"num_deleted":"0","num_feature":"25","num_nodes":"7","size_leaf_vector":"1"}},{"base_weights":[2.4015954E-1,-2.0749703E-1,1.403242E-2,5.1475368E-3,-1.6716976E-2],"categories":[],"categories_nodes":[],"categories_segments":[],"categories_sizes":[],"default_left":[0,0,0,0,0],"id":113,"left_children":[1,3,-1,-1,-1],"loss_changes":[1.6569553E1,1.5460221E1,0E0,0E0,0E0],"parents":[2147483647,0,0,1,1],"right_children":[2,4,-1,-1,-1],"split_conditions":[4.7705978E-1,4.098732E-1,1.403242E-2,5.1475368E-3,-1.6716976E-2],"split_indices":[1,1,0,0,0],"split_type":[0,0,0,0,0],"sum_hessian":[5.596385E1,3.3186672E1,2.2777174E1,2.0360765E1,1.2825906E1],"tree_param":{"num_deleted":"0","num_feature":"25","num_nodes":"5","size_leaf_vector":"1"}},{"base_weights":[-3.7761528E-2,1.0929119E-2,-5.465961E-1,1.4924002E-3,-2.4702074E-2],"categories":[],"categories_nodes":[],"categories_segments":[],"categories_sizes":[],"default_left":[0,0,0,0,0],"id":114,"left_children":[1,-1,3,-1,-1],"loss_changes":[1.7964586E1,0E0,1.9095604E1,0E0,0E0],"parents":[2147483647,0,0,2,2],"right_children":[2,-1,4,-1,-1],"split_conditions":[8.1084263E-1,1.0929119E-2,1.7855653E-1,1.4924002E-3,-2.4702074E-2],"split_indices":[0,0,4,0,0],"split_type":[0,0,0,0,0],"sum_hessian":[4.794435E1,1.9476215E1,2.8468134E1,1.7487404E1,1.098073E1],"tree_param":{"num_deleted":"0","num_feature":"25","num_nodes":"5","size_leaf_vector":"1"}},{"base_weights":[8.607189E-2,1.1001223E-2,-2.3239414E-1,3.7973898E-3,-1.2040847E-2],"categories":[],"categories_nodes":[],"categories_segments":[],"categories_sizes":[],"default_left":[0,0,0,0,0],"id":115,"left_children":[1,-1,3,-1,-1],"loss_changes":[1.1615361E1,0E0,9.946001E0,0E0,0E0],"parents":[2147483647,0,0,2,2],"right_children":[2,-1,4,-1,-1],"split_conditions":[5.046022E-3,1.1001223E-2,1.2128558E0,3.7973898E-3,-1.2040847E-2],"split_indices":[9,0,19,0,0],"split_type":[0,0,0,0,0],"sum_hessian":[5.8714092E1,2.0104483E1,3.8609608E1,2.0373869E1,1.823574E1],"tree_param":{"num_deleted":"0","num_feature":"25","num_nodes":"5","size_leaf_vector":"1"}},{"base_weights":[2.9822955E-1,5.792458E-2,1.7841784E-2,-1.3370784E-1,1.8241726E-2,-7.3883307E-1,6.5297573E-3,-2.9643703E-2,-1.2075593E-3],"categories":[],"categories_nodes":[],"categories_segments":[],"categories_sizes":[],"default_left":[0,0,0,0,0,0,0,0,0],"id":116,"left_children":[1,3,-1,5,-1,7,-1,-1,-1],"loss_changes":[1.2279028E1,1.0306007E1,0E0,1.3627554E1,0E0,1.4705239E1,0E0,0E0,0E0],"parents":[2147483647,0,0,1,1,3,3,5,5],"right_children":[2,4,-1,6,-1,8,-1,-1,-1],"split_conditions":[5.216676E-1,1.7412229E-2,1.7841784E-2,3.328401E-1,1.8241726E-2,1.3665322E0,6.5297573E-3,-2.9643703E-2,-1.2075593E-3],"split_indices":[3,12,0,24,0,19,0,0,0],"split_type":[0,0,0,0,0,0,0,0,0],"sum_hessian":[6.1330235E1,4.7850964E1,1.3479271E1,4.07049E1,7.1460643E0,1.9521124E1,2.1183775E1,7.026165E0,1.2494959E1],"tree_param":{"num_deleted":"0","num_feature":"25","num_nodes":"9","size_leaf_vector":"1"}},{"base_weights":[3.2710972E-1,-2.3347642E-1,8.0014074E-1,-6.910077E-1,1.4445877E-2,1.7312683E-2,-1.7959104E-3,-2.9819945E-3,-2.6680037E-2],"categories":[],"categories_nodes":[],"categories_segments":[],"categories_sizes":[],"default_left":[0,0,0,0,0,0,0,0,0],"id":117,"left_children":[1,3,5,7,-1,-1,-1,-1,-1],"loss_changes":[1.7382538E1,1.57318535E1,1.0133953E1,1.0638264E1,0E0,0E0,0E0,0E0,0E0],"parents":[2147483647,0,0,1,1,2,2,3,3],"right_children":[2,4,6,8,-1,-1,-1,-1,-1],"split_conditions":[4.9297458E-1,1.7422946E-2,1.2350318E-2,9.3333334E-2,1.4445877E-2,1.7312683E-2,-1.7959104E-3,-2.9819945E-3,-2.6680037E-2],"split_indices":[20,12,9,16,0,0,0,0,0],"split_type":[0,0,0,0,0,0,0,0,0],"sum_hessian":[6.527772E1,2.975025E1,3.5527466E1,2.1403769E1,8.346482E0,2.668967E1,8.837793E0,1.4429197E1,6.9745708E0],"tree_param":{"num_deleted":"0","num_feature":"25","num_nodes":"9","size_leaf_vector":"1"}},{"base_weights":[1.0066861E-1,-6.16048E-1,9.563635E-3,-1.7741492E-2,8.690778E-3],"categories":[],"categories_nodes":[],"categories_segments":[],"categories_sizes":[],"default_left":[0,0,0,0,0],"id":118,"left_children":[1,3,-1,-1,-1],"loss_changes":[1.831796E1,1.2680695E1,0E0,0E0,0E0],"parents":[2147483647,0,0,1,1],"right_children":[2,4,-1,-1,-1],"split_conditions":[1.55886E0,2.2675453E1,9.563635E-3,-1.7741492E-2,8.690778E-3],"split_indices":[7,14,0,0,0],"split_type":[0,0,0,0,0],"sum_hessian":[4.9981384E1,2.0707745E1,2.9273638E1,1.442578E1,6.2819653E0],"tree_param":{"num_deleted":"0","num_feature":"25","num_nodes":"5","size_leaf_vector":"1"}},{"base_weights":[-8.104088E-2,1.2685747E-2,-7.27627E-1,-1.8226665E-2,4.022261E-3],"categories":[],"categories_nodes":[],"categories_segments":[],"categories_sizes":[],"default_left":[0,0,0,0,0],"id":119,"left_children":[1,-1,3,-1,-1],"loss_changes":[3.0574677E1,0E0,1.3433838E1,0E0,0E0],"parents":[2147483647,0,0,2,2],"right_children":[2,-1,4,-1,-1],"split_conditions":[8.1084263E-1,1.2685747E-2,4.9521363E-1,-1.8226665E-2,4.022261E-3],"split_indices":[0,0,3,0,0],"split_type":[0,0,0,0,0],"sum_hessian":[5.297794E1,2.2167921E1,3.0810017E1,2.1404688E1,9.405329E0],"tree_param":{"num_deleted":"0","num_feature":"25","num_nodes":"5","size_leaf_vector":"1"}},{"base_weights":[2.893583E-1],"categories":[],"categories_nodes":[],"categories_segments":[],"categories_sizes":[],"default_left":[0],"id":120,"left_children":[-1],"loss_changes":[0E0],"parents":[2147483647],"right_children":[-1],"split_conditions":[4.5214896E-3],"split_indices":[0],"split_type":[0],"sum_hessian":[5.7702126E1],"tree_param":{"num_deleted":"0","num_feature":"25","num_nodes":"1","size_leaf_vector":"1"}},{"base_weights":[1.3816263E-1,4.8048726E-1,-5.217113E-1,1.2296304E-2,-1.3146053E-2,-2.057676E-2,1.0696477E-2],"categories":[],"categories_nodes":[],"categories_segments":[],"categories_sizes":[],"default_left":[0,0,0,0,0,0,0],"id":121,"left_children":[1,3,5,-1,-1,-1,-1],"loss_changes":[1.2949556E1,1.5339159E1,1.8746737E1,0E0,0E0,0E0,0E0],"parents":[2147483647,0,0,1,1,2,2],"right_children":[2,4,6,-1,-1,-1,-1],"split_conditions":[1.7855653E-1,6.227222E-1,5.04593E-1,1.2296304E-2,-1.3146053E-2,-2.057676E-2,1.0696477E-2],"split_indices":[4,2,1,0,0,0,0],"split_type":[0,0,0,0,0,0,0],"sum_hessian":[5.734991E1,3.7888428E1,1.9461483E1,3.083645E1,7.051975E0,1.1793597E1,7.667886E0],"tree_param":{"num_deleted":"0","num_feature":"25","num_nodes":"7","size_leaf_vector":"1"}},{"base_weights":[1.1234088E-1,-4.8197646E-2,1.9180642E-2,-1.62961E-2,2.7549466E-1,-8.5711405E-3,1.1277339E-2],"categories":[],"categories_nodes":[],"categories_segments":[],"categories_sizes":[],"default_left":[0,0,0,0,0,0,0],"id":122,"left_children":[1,3,-1,-1,5,-1,-1],"loss_changes":[9.602711E0,1.4925605E1,0E0,0E0,1.2761645E1,0E0,0E0],"parents":[2147483647,0,0,1,